#pragma once
double weight_ih_l0[] = {-0.0008527319,-0.0990554616,0.0354890451,0.0833466500,0.1208959371,-0.1541498005,0.0207913108,0.1274781674,-0.1489050388,0.1097726300,-0.0057848603,-0.0289577655,0.0976234600,0.0038218535,-0.0823645964,0.0157086365,-0.0268720333,0.2300847620,0.1041803062,0.0140469875,-0.1650821418,0.1660703421,-0.0863986090,-0.1011462659,-0.1723162830,-0.0129794991,0.1411428601,0.0404027998,0.0278531704,-0.2935585082,-0.0348541215,0.0424152203,-0.0603295825,-0.0547917485,0.0467972234,0.1418616921,0.1060920507,-0.0482168719,0.2336167544,-0.0737066567,-0.0604577959,-0.1744356155,0.2293364704,-0.0589384139,-0.2067624778,0.0144493273,0.0780510455,-0.1912469268,0.0326791666,0.0078735221,0.0362184346,-0.0332817957,0.0228352733,0.0840797350,-0.0552582256,-0.7254449725,-0.0470379852,-0.0895785168,0.0340976678,0.0747862682,0.0473501347,-0.0791621208,-0.2399899513,0.1012162492,-0.0579309799,0.0090862475,-0.2382711172,0.1094732434,-0.0471891239,0.0055568446,0.0314586908,-0.4057275355,-0.0590700544,0.0396193899,-0.1043627337,-0.0083884876,0.0814669728,0.0329091251,-0.0103973495,-0.0081462050,-0.2325517088,0.1301777661,-0.1371809542,-0.0427262895,-0.0321440063,0.1263469607,0.0432727747,-0.0071850307,0.0093654264,0.0428156182,-0.1050652266,0.0890590549,-0.0509803072,0.0116693983,-0.1771847159,-0.1072058082,-0.0154076433,0.0212250352,0.2424039543,-0.0589605607,-0.0562794246,-0.2539074719,-0.1923854649,-0.1350004524,0.0544681624,-0.0645796284,0.1042352915,-0.0846643448,0.2189283520,0.2321866453,-0.5319393873,0.0067393412,-0.0822268650,-0.1496230364,0.0051136157,0.0458587706,-0.1373120248,0.1236379668,-0.0973764881,-0.0820003152,0.0686582625,0.0081174672,-0.1228076220,-0.0386938974,0.0797557235,-0.0505303591,0.1321505457,-0.0286398400,-0.1628575325,-0.0701737329,0.2092780918,0.0295360964,-0.0647614002,0.0278898496,-0.0258582961,-0.0761679709,0.0284377541,-0.1690590382,0.0368104056,0.0410210826,-0.0377520286,0.0209503695,0.0288437940,-0.3013616502,-0.1392908245,0.0442129932,-0.1293955296,0.1264277250,-0.0246578250,-0.1415736377,-0.1009676084,0.0103861960,0.0090966830,0.0359278806,-0.0420093387,0.0011299370,-0.0780268982,0.0048970529,-0.0673426017,0.0388166979,-0.1221048534,-0.0622455366,0.0173014570,-0.1575892270,-0.2194166034,0.0657110065,-0.0334521942,-0.0552401654,0.1541255862,-0.1444621831,-0.1498831511,0.0475337394,0.0582469814,-0.1855145544,0.0113047194,0.1066006273,0.0287299808,-0.1116495281,-0.0221168268,0.0093394574,-0.0065236893,-0.0863336250,-0.1529524624,0.0434640311,-0.0535515808,-0.2466740161,0.0012846114,0.4014065564,-0.2717656195,0.0709899068,-0.0538381189,-0.0199668277,0.0090962583,-0.3147681653,-0.5415293574,0.1122679263,0.2865343392,-0.1088062525,-0.0612628870,0.2127983272,0.0393663123,-0.0875362754,-0.3288405240,-0.1344176531,0.1008446142,0.0219159797,-0.4091004133,0.0691654161,0.3046340942,-0.3503849506,0.0502807833,0.0569612421,-0.1556498259,0.4153279960,-0.0083105732,-0.5677459836,-0.0157508701,-0.0735562593,0.0365187451,0.0113900900,-0.0864077657,0.2083146721,0.1215886846,0.1214065626,-0.1358620375,-0.2219374329,-0.1416869462,-0.1901730150,-0.0248421766,0.0280998629,-0.0850957334,-0.0585428104,-0.4728384614,-0.3633448184,0.4040131271,-0.1012532786,-0.0153011605,-0.0380662493,-0.0184514765,-0.0151510425,0.2540385425,0.0198990274,-0.4395866394,-0.0560765453,0.0126208039,-0.4350486398,-0.0114879115,-0.7032373548,0.5877159834,0.0323183127,0.0562626459,-0.6024703383,0.0503856763,0.0579148754,-0.0977359787,0.4388420284,0.0052899537,-0.7008208632,0.0128540285,-0.0113363545,-0.2221475393,0.1230248958,-0.1099733114,-0.1131284609,0.2366635650,0.4653883874,0.3334592581,0.2505248785,0.4889145494,0.2076285630,0.1348508596,0.0589370951,0.0372862034,0.0120295594,-0.1715183407,0.0290574171,0.0936869606,0.2229516059,-0.1706735194,0.2122412771,0.2732142210,-0.0768952295,-0.0483236015,-0.0732322559,-0.2465061247,-0.0061058500,0.0359478705,-0.0021088973,-0.0176145937,0.0673920736,-0.1274792999,0.3591290414,0.0012923338,-0.5092794895,-0.1880422682,-0.3112907112,-0.3685899079,0.1039436534,0.0484716110,-0.3903008401,0.0073722433,-0.0411052890,0.1516276747,-0.0201155748,-0.3882699013,-0.3869119883,0.0912471339,0.2471451014,-0.0376395434,-0.2219070047,-0.4360651672,-0.0220106635,0.2196234167,-0.0720771104,-0.4007071555,0.3495625257,0.2312556803,-0.5653946400,0.0882089287,-0.0426107347,0.1662937254,0.0079861339,0.4881149530,0.2635469437,0.1382278353,0.0513541065,-0.3083690703,-0.0024547642,0.0413642079,-0.0183287505,-0.0404569432,0.1218712926,0.0099149942,-0.1271563619,0.2087286562,0.2369659543,-0.1107342243,0.1010934860,-0.2487866133,0.6148622036,0.0079076597,-0.5537071824,0.1366093606,0.0070890030,-0.6453379989,0.1687797308,0.0612098575,0.0299775694,-0.1699072570,-0.0593551360,-0.2775455117,-0.1076571941,0.3026956320,0.1283051968,0.1402694732,0.0371843241,-0.1657617241,0.1431104094,0.0475730933,-0.2628317475,0.0476745814,-0.8078851104,-0.6492804289,0.0856432766,0.2737381458,0.0648750886,0.1710615307,0.2842672467,-0.5570270419,0.0497724265,0.0377974771,-0.3794515431,0.2164591104,-0.0487277135,-0.0552361570,0.0494127087,-0.2538713217,-0.3959353268,0.2007204741,0.1650778502,-0.3152935505,0.5014749765,0.0113785435,-0.9019053578,0.1316736788,0.5182574391,0.2453445494,-0.1094859317,-0.4085037410,0.7981971502,0.1950230747,-0.2954503298,-0.9944330454,0.1237991750,-0.4841477275,-0.3382386267,0.4776556790,-0.1209133714,-0.0236404575,0.3337463439,0.3365534246,0.2011606097,-0.3578226268,0.3255500495,0.0108194752,-0.4549853504,0.2682721615,-0.0425968543,0.0206595771,0.0423909575,0.0003275780,-0.1988072097,0.4442385733,-0.2761438787,-0.2869974673,-0.3829188347,0.1449136585,0.2787303925,0.2039729953,0.1619689763,-0.0117104864,-0.0018431528,0.0294283200,0.0603309721,0.4443064928,-0.8307048678,0.3695402145,-0.3194447756,-0.0471421890,0.3447595239,-0.3340845704,-0.1399076283,0.4492043853,0.1023786590,-0.1357991546,-0.3926793039,-0.1614528894,-0.5425285101,0.0947158858,-0.4416882992,-0.0052222358,-0.4557165802,-0.1623106897,0.0396374688,-0.4623059928,0.1844387501,-0.1212105155,-0.5057525635,0.0120782172,-0.0219917241,0.0696854442,-0.1819085777,0.2648592293,0.0480584241,-0.4872532785,0.4366164207,0.1899318844,0.4846954048,-0.4032637775,-0.2565530539,-0.4832330644,-0.1117757261,-0.0159044005,-0.4578550160,0.6546632648,0.2669806778,-0.3840456903,-0.3220352829,-0.1741853505,-0.0544714294,1.3073616028,0.2764461935,0.4576746523,0.0417307876,0.1276373565,-0.4537176192,-0.5325948596,0.0604371168,0.0108063817,1.3847196102,0.0457102619,0.0219422560,0.0314445570,0.4768935740,-0.0700966716,0.4647276103,0.3308764994,0.4027259350,-0.0463902205,-0.3847818375,-0.3112948537,0.1774247140,0.1345510483,-0.0239443425,-0.0420443676,0.0199974794,-0.5323746800,-0.0814755931,0.3150071800,0.3661834896,-0.3267781138,0.0466694012,0.4921718240,-0.1869252324,0.4387013316,-0.1976474822,0.1577550769,0.4876773357,0.1686478257,-0.1777080297,-0.3365798295,0.3681575954,-0.0853162631,-0.0930517539,0.2580195665,1.2023674250,-0.4542965889,-0.1732988507,0.2460911125,-0.4307368100,0.2347208411,-0.0173884556,0.1282561123,-0.4907346070,-0.5606161356,-0.3173940182,0.3371519744,-0.3868243098,-0.2639485896,-0.3650729954,0.6675128341,0.4886382222,-0.1952496916,-0.1350137889,-0.4718692005,-0.1119645685,-0.2904441953,0.1261949092,-0.2817468941,0.1056491286,-0.4022778869,-0.1621894091,-0.6035367250,-0.0020401923,0.0078946501,-0.0520580001,-0.1586941481,0.0977157131,-1.3330326080,0.4127674401,-0.2820083499,-0.1551378071,0.1172540858,-0.5304213166,-0.3866536617,-0.1497413069,-0.4963694513,0.0281440485,0.4176280797,0.2886560261,-0.0727845505,-0.3391803205,-0.3289973438,0.1408799291,-0.3357138336,0.3375773430,-0.1763842851,-0.0596830100,0.5339391828,-0.0757119581,-0.0606546625,0.2395188361,0.1535395533,-0.5279663801,0.0788962469,-0.1749282628,};
double weight_ih_l0_reverse[] = {-0.0065712067,0.0724001452,0.2051256448,0.0941723883,0.1167315468,-0.0332730152,-0.0886207670,0.0089187883,0.1773777753,-0.0541213192,0.1425532848,-0.1983838677,-0.1687666625,0.0748470724,0.8238261938,0.0058843563,0.0957154334,-0.1360611767,-0.0099703074,-0.0515334308,-0.1175948903,0.2132114023,-0.1903869063,0.0015796630,0.1046643555,-0.1188384891,0.0071013290,0.1504829228,-0.1440593749,-0.1406305134,-0.0467718653,0.0887215883,0.0183177311,-0.0067627602,-0.0059170295,-0.0308345631,0.0723734424,-0.0101536065,0.0787575245,-0.1515426934,0.2918593884,0.1693862081,0.1209389567,-0.1514524072,-0.4485706687,0.1724321097,-0.1433052272,-0.0256734323,0.2939752340,-0.1812045127,-0.0414004065,0.0326328836,0.1046931446,-0.0682796836,0.1145145372,0.0214780401,0.0430016220,0.2866745293,-0.1390077919,-0.0302991401,0.0587192662,-0.0443834476,-0.1774332672,0.0192980021,0.0334135070,0.0952654704,0.0153836478,0.0912780017,-0.0096577350,-0.1419108957,-0.0069387592,0.2178667784,0.0193958506,-0.0124105979,0.0478419699,0.1121102348,0.0531175956,-0.0480431207,0.1167327985,0.0466133840,0.1846984774,0.2372629046,-0.1808331311,-0.0036786702,-0.0162717886,0.0518232360,-0.1080264524,-0.3247984946,0.0046953275,0.0237724222,0.0651619434,-0.0291133914,-0.0162417553,-0.2518168390,-0.2999842763,-0.3443786502,-0.1746161729,-0.1111223102,0.1871879846,-0.0070771836,0.0768803284,-0.0165766031,0.0049294401,0.0288360864,-0.0559602454,-0.0342944376,-0.0440953150,-0.1249488518,-0.0398007557,-0.0358515643,-0.1074775904,-0.1099649817,0.0114133609,-0.0438244194,0.0734471902,-0.0727317408,-0.0456356853,-0.0028470953,-0.0527236126,0.0956065282,0.1937346458,-0.1318953633,0.0450890176,-0.1272510588,0.0702245608,-0.0278761946,-0.0028233901,-0.0026617658,-0.1274579763,0.0303324256,0.0922935978,0.0589207299,-0.0052214735,-0.0158182979,-0.0201179292,0.1488806903,-0.1613149643,-0.0773143023,-0.0074547282,-0.1146958917,-0.0294517241,0.0060513983,0.0669319928,-0.0119120330,0.0599878207,0.1547488868,0.0452051796,-0.0048405249,-0.0505768880,-0.1411377043,0.0082398541,-0.0019638673,-0.0150841977,0.0023222161,0.0204477441,-0.0955202952,0.2894292772,-0.1926092952,-0.0356278494,0.0312838703,0.0037598107,-0.1584558338,-0.0738293901,0.0329718105,-0.1149751991,0.0499248207,0.0351708978,0.1150087863,0.0264386814,0.1100483462,-0.1304821521,0.0211288594,-0.1054192558,-0.0352793038,-0.1768392622,-0.0734396055,-0.1768492162,-0.2151152045,0.2082596868,-0.2319766879,-0.4167137146,-0.0671297312,0.2875884473,0.1369866282,0.2999590933,-0.3623826206,-0.0347367935,0.3350679278,-0.1570702493,-0.1519131362,0.0086644422,-0.1492267847,-0.1329819113,-0.3248381615,-0.4649205506,-0.0643816814,-0.0607466698,-0.1954427809,-0.2744475305,-0.1081063747,-0.3633359671,-0.1103880852,-0.2731342316,0.0674456879,0.1319170296,-0.0649308115,-0.7523311973,0.0128017170,-0.1308666915,-0.1259440035,0.0558049046,-0.0315027982,-0.1567241102,-0.0823078007,-0.0358863138,-0.2783479095,-0.4002472758,0.2592515945,-0.1916617453,0.0879319236,-0.0835577548,-0.2523787916,0.3468123376,0.2159234732,-0.2670110166,-0.0012233100,0.0345986523,-0.1724670976,-0.2829629481,-0.0140866209,-0.3459803462,-0.3901189566,-0.3217943013,-0.1303869784,-0.2582055926,0.3997443616,-0.1269410998,-0.0013527545,0.0197525937,-0.1439101994,-0.1668628901,0.0678643063,-0.3308200538,-0.1325901747,-0.1309305280,-0.2490730584,-0.2438740432,0.1733320057,-0.2388313860,-0.0958394408,0.0073051131,-0.2889376879,0.1068245843,-0.2021674216,-0.2369835079,-0.0932423547,0.0310001001,-0.1215348691,-0.0858704224,-0.0332509317,-0.1085441932,0.4667185247,-0.1338002384,-0.1790194809,0.0225160476,0.0678160712,-0.2572302520,-0.0589315742,-0.0954249948,0.0009174719,-0.0133322664,0.0470246561,-0.2328223586,-0.7351796627,0.5876953602,-0.0527087785,0.3104069233,0.1227048114,-0.2188982815,0.0130052399,0.0296228752,-0.0381393321,-0.1629665047,0.0611904077,-0.3205952346,0.0200447552,-0.0908752680,0.1970831901,0.3955960870,0.0921725482,-0.2846854925,-0.0246105511,-0.0295590758,-0.2215973288,-0.0300227944,-0.0724287257,-0.1218418181,0.1055474579,0.0625141636,-0.1430793852,0.0016927486,-0.0499318764,-0.1686621606,0.0294184722,-0.1434075683,0.0357217193,0.0274163783,0.0277764164,-0.1860328466,-0.6494897008,0.5118549466,-0.2563166320,-0.2692247033,0.0637088120,-0.3118802011,0.1004915088,0.3623973727,-0.3144351840,-0.4288102984,0.2480200976,-0.0784982443,-0.1746566445,-0.2545666099,-0.2184325904,-0.0595032237,0.0478515141,-0.1404219121,-0.0574206077,0.0780846253,-0.1583110988,0.0914111882,-0.0465785265,-0.1267831624,0.0156295076,0.0749390945,-0.1563808769,-0.0847254917,-0.0740164295,-0.1666475832,0.1243472025,0.0150253912,-0.1006925777,-0.0401959382,0.1120378301,-0.1859514713,-0.3194438219,0.3949446976,-0.1630619615,-0.1300473660,0.1069803461,-0.2144049853,-0.0045975829,-0.0885853395,0.0261341222,0.1168836057,0.0155906854,-0.1680901796,-0.2390943021,-0.3832483292,0.1413308829,-0.1484108269,-0.2906175554,-0.1647274345,0.1306994110,-0.0646789894,-0.2169358283,0.2591626942,-0.0355698839,-0.1188436002,-0.4992370903,-0.3671043515,-0.0715844333,-0.0458837226,0.1013910547,-0.2236514539,-0.0822150409,-0.0140609061,-0.0270830523,-0.5252074003,-0.3774335384,-0.0432625674,0.6525945067,0.3294636905,-0.1064753234,0.1185600311,-0.3155717552,-0.1589581221,-0.2804941833,-0.0864165351,-0.2047585547,-0.1970297396,0.0149043901,-0.6510192156,0.2227678001,0.1428552419,-0.3377586901,0.0453190617,-0.3593712747,0.1332398653,-0.1730088890,-0.3655720055,0.0611239225,-0.1968810260,-0.2594936192,-0.3430132270,-0.3899196684,0.1369813383,-0.1505915672,-0.1738954931,0.2012028247,0.4132260978,0.2936563194,-0.1414526999,0.1326337010,-0.3198610246,-0.1471666247,0.0941996649,0.4306482971,-0.1367438287,-0.0261178557,0.1894115359,0.0090370104,0.6257802844,0.2650749087,0.2702914774,-0.0758160427,0.1589493006,-0.2552474141,-0.0883971900,0.3527865112,-0.2120584100,-0.1145903543,-0.3982729316,0.1283285022,-0.1337238252,-0.2366026193,-0.2052779943,-0.4276407659,-0.1325472295,0.2378348559,0.3567115963,-0.4368758798,0.1342305541,-0.0796820819,-0.2710990906,0.1688390672,0.0394436382,0.1873623729,-0.0898770839,-0.6432359815,0.0252944008,0.4334778190,0.2195632458,0.3134349585,-0.0506450385,0.2539188564,-0.2454011142,0.1431903243,-0.3253384829,-0.3516353965,-0.1165041775,0.2441387028,-0.0030318557,-0.2817523777,0.4045760930,-0.3324171603,0.2767172158,0.0855063573,0.1895382851,0.1569633931,-0.5303846002,0.2781042755,0.1822820753,-0.0012673733,0.4166027308,-0.1484349519,0.0828059465,0.1866197884,0.2276484221,-0.3805657327,0.2957393527,0.1263151467,0.0309542622,-0.0747879893,-0.4541675746,-0.0850141644,-0.1814866811,-0.3810589910,0.0330198705,0.1230683327,0.4255445004,-0.0224544406,-0.1156690717,-0.3960971534,-0.1641497910,0.1854543835,0.1907161027,-0.3369149566,0.4200248420,-0.1640071273,-0.0643504634,0.2767488658,-0.2572285831,-0.0865322724,0.2607963383,-0.0920604840,0.4627710283,0.0418361723,-0.3111715615,-0.0371350311,-0.2737829387,0.1880823821,0.1977658719,-0.1929532588,-0.1739963740,-0.4530418217,0.0157465506,0.4250878096,0.2308766991,-0.3876542449,0.1991768181,0.0671652704,-0.3854805827,0.1502477080,0.2388997376,0.0579090081,0.4491763711,0.0767783746,0.2850711048,0.0343189202,0.1048850939,0.1402185857,0.4129815102,-0.1068619713,0.0857542232,0.4442141056,-0.0349195860,0.1701993495,-0.2586612701,-0.1623156071,0.4387496114,-0.1361638010,-0.0595435612,0.1150380149,0.3933463693,-0.1452579647,0.2078913301,0.0062597548,-0.5198897123,0.0840489119,0.2303861380,-0.6369407773,-0.1334562302,-0.4001156092,-0.0538714118,0.4441951513,-0.1068498343,-0.0098739630,-0.2820506692,-0.1545593739,-0.1070506722,-0.3308227062,-0.2007998228,0.0402250662,-0.2785453200,-0.1932861507,-0.0341376290,0.1691143662,0.2176369131,0.5365928411,0.3099497557,0.2101169527,0.0424117893,0.3452253640,0.2414347231,-0.0832824484,};
double weight_hh_l0[] = {-0.2275514454,0.0463837683,0.1120185852,0.1178551540,-0.0264411885,-0.1505255252,-0.1254750341,0.0235600937,-0.0535142086,-0.0792132765,0.0714836642,0.1110983938,-0.0550548956,-0.1206980199,-0.0058787814,0.0726840124,-0.0651105568,0.1131856591,-0.0908959135,0.0833735541,0.0526449978,0.0573985688,0.0388032272,0.1344613433,-0.1016011611,0.1202089712,0.1378862709,0.0689324588,0.0295413118,-0.1795957834,0.1446876973,-0.0731797218,-0.0592011698,-0.0182980020,-0.1244945824,0.1885224432,-0.0046088072,0.2715976238,-0.0972010270,-0.0119542982,0.0332866944,-0.1163655221,-0.1153966635,0.0044417526,-0.0137074320,-0.0858466476,0.0615719780,-0.0079142060,0.1433311850,0.0206629410,0.0455181524,-0.0426206440,0.0202271584,-0.0640688464,-0.0573108345,0.0322893113,0.2159466743,0.1940702349,-0.1993502080,0.1079064459,-0.0626312420,-0.2226515859,0.0570943207,0.1385327280,-0.1261369735,-0.1615483761,-0.1513897032,0.0193041116,-0.0675330609,-0.0078415927,0.1086674780,0.0367209166,-0.0125962757,0.1911340952,-0.1070924476,-0.1124687418,-0.0838645920,-0.2418379337,-0.2315783501,-0.0867398158,0.0309762675,0.0354963019,0.1519376636,-0.0269997921,0.0999152660,-0.0934857652,-0.0087175816,-0.1610793918,0.2112230361,-0.1514427960,-0.2572797835,-0.0446446538,-0.1026113480,0.1028903127,-0.0909826085,-0.0178497285,0.0306167118,-0.0027733336,-0.1174689159,0.0174884703,-0.0323020220,0.1423891932,0.1186255068,-0.0438101627,-0.0461946987,0.0824856535,0.1928863674,0.1122172549,-0.1885672510,0.1668595523,-0.0927038565,0.3042789698,-0.1074486598,0.0037669418,-0.0327550806,0.0299809035,-0.0825041309,0.1598287076,0.0519979484,-0.1135573015,0.1294521093,-0.1514431387,-0.0492698476,-0.0036617415,0.1012663767,0.0392957591,0.1571908295,-0.0226926878,-0.0477197580,-0.0021468082,-0.2301791608,-0.0331589356,-0.0920363367,0.1188908145,0.1152507961,0.0824974477,-0.0350928418,-0.0440577827,-0.1433798224,0.2637591362,-0.0846867263,-0.1250119209,-0.0987735912,-0.1568515450,-0.0495873392,-0.0586506948,0.2304643840,0.0870839953,0.1461516917,0.1010046303,0.0234314334,-0.0946768597,0.2091097087,-0.1892922372,-0.0494942591,0.0048650843,0.0597358271,0.1039236784,-0.0440545231,-0.0962573588,0.0946724415,-0.1253912896,-0.0446013622,-0.0807090327,-0.0067393291,0.1015079096,0.0460849553,-0.0802511647,-0.0649078339,-0.0182414874,0.0678910390,0.1145358235,0.0770661682,0.0618154258,-0.1203247756,0.0522298366,-0.1178555265,-0.0025270614,-0.0216694064,-0.1271158010,-0.0722636282,0.0902483314,0.2071614116,-0.1000777110,0.2680621147,-0.1153736711,0.0259552281,-0.0091506168,0.1360179931,-0.0503091924,0.2374283671,0.0453751348,-0.2455096394,0.0326081514,0.0982131511,0.1632712334,-0.0513199829,-0.2494887859,-0.0257647671,-0.0114255538,-0.1031148061,-0.0985761955,0.1446557790,0.0307214763,0.0729919225,-0.1690279990,0.0052890303,0.0315682106,-0.0600392558,0.1648350060,0.2479340881,0.0894302577,0.0799601898,-0.0460179411,0.1459332556,0.0679521039,-0.0866572857,0.2225980908,0.0191046689,0.1535193175,-0.0241545346,-0.1920125186,0.2305125147,-0.2036377341,-0.0889160931,-0.1287630051,-0.0249998756,0.2155658603,-0.1849137694,0.3235580921,-0.2172712535,-0.1724193990,0.0312364735,-0.0696250796,-0.0172042623,-0.1443052143,-0.0172659084,0.0164207444,0.1243952364,0.0755742714,0.1290327460,0.1129715666,0.0510417633,0.0490558185,0.0102047361,0.0009487661,0.1755952984,0.0222720616,0.2728954554,0.1523007452,-0.2031051964,0.1246366203,-0.0274413116,-0.2540468872,0.1975588650,0.0189064238,-0.0160200745,-0.0430528373,0.0244693067,0.0226149559,-0.0860271305,-0.0004655179,0.0151108271,0.0055074766,-0.0452316217,-0.0566692799,0.0586449131,-0.1834035069,-0.0235105045,0.0286541451,-0.0560849719,-0.0902229622,-0.1019716635,0.1105559394,0.3973202109,0.0806915462,0.0505633913,0.0258758217,0.0661208108,0.0121614859,0.0797479600,-0.0760306716,-0.0121129788,0.0040985839,-0.0568013154,0.0443080775,0.0454147458,-0.0974903181,-0.0014017008,-0.0940934196,-0.0115337856,0.0755422711,0.2020645887,-0.0021995564,-0.0218448155,-0.1621796936,-0.0237088595,-0.0288611297,-0.0473764092,0.0510018170,0.1140988246,0.0696507096,-0.0129383896,-0.0045687538,-0.0074329684,-0.0221984908,-0.0057745120,0.0085379221,0.0504625179,0.0700900480,0.1247274652,-0.0634015724,0.2299984545,0.0200908016,0.0289974250,0.0082478710,0.0217458159,-0.0237916950,0.2184645683,-0.0217388533,0.0668305084,-0.1753844917,-0.1451412588,-0.0552496687,0.0703080073,0.1080651283,0.0084198797,-0.0235465690,0.1597821116,0.0427145176,-0.1737936139,0.0489623509,-0.0706449226,0.0669202805,0.0403546058,-0.0317657180,0.0932303295,-0.0889091864,-0.0350954793,-0.0817482322,0.0805746987,-0.1474799067,0.0498984568,-0.0491840988,0.2549232841,-0.1840973049,-0.1600980610,0.0233456828,-0.1234553754,0.1252703071,-0.0573845841,-0.0174020901,0.0593773276,0.0527299680,0.0488562956,-0.0546675026,0.1644814461,0.0294395313,0.1538091749,0.0459488742,0.0168052893,0.1340052485,0.0764390454,0.1878272444,-0.1508525163,0.0828263462,-0.1536944360,0.1338962168,-0.1570332199,0.0344025642,-0.0763656124,0.0170730148,-0.0918882787,0.0562386401,0.0828128234,-0.0564917773,0.0820426643,-0.1431029439,0.0980206653,-0.0345231220,0.0070369798,0.0154201463,0.3223437965,-0.1590647846,-0.0032563303,-0.0015743149,0.0473384112,0.0859846175,0.0007553667,0.1132161319,0.0339468755,-0.0919475406,-0.0891073048,-0.0477046669,-0.0394905247,-0.1141060144,0.0152262393,0.1362969279,0.0542717539,-0.0324361175,-0.0099992938,0.0091856616,0.2139228880,-0.0055245413,0.0306882281,-0.0896098018,0.0465047881,-0.0453970432,0.0343542472,-0.1144406646,0.0107532581,0.0320893638,-0.0737682432,0.0554743297,-0.0376100801,-0.0378147028,-0.1564500034,-0.0589118116,0.0664970949,-0.0347410217,0.0482575782,0.0312422141,0.0408330522,-0.0638106838,0.0300093107,0.0710946918,0.0035779702,-0.0056422250,0.0091132130,0.0065931771,0.0358713232,-0.0003009349,-0.1066562459,0.1435110718,-0.0728406459,0.0972327292,-0.0505772159,-0.2531127334,0.0893171653,0.0487764962,0.1928630769,-0.0539449863,0.1010171548,-0.1014416590,0.0215342008,-0.0140114734,0.2224537134,-0.1335010529,0.0732394531,-0.0126994234,-0.0268344507,0.0943647325,0.1672399193,0.1875120997,-0.0545355752,-0.2000937313,0.0118305301,-0.0823605806,-0.1505592167,-0.1805669665,0.0807330161,0.0263309963,0.0675853714,0.0644668266,0.1520856768,-0.1510922462,0.4872775674,-0.1959707290,-0.1088271439,-0.1916368753,-0.0438959934,0.0469499938,0.1597468704,-0.1752293706,-0.0886778757,0.0948854983,-0.0185721833,0.2028179467,-0.0050469218,0.3264931142,-0.1066761762,0.1463114470,0.0871013179,-0.1512804329,0.3106497824,-0.0200230721,0.1734786332,-0.0333888978,0.2021283358,0.2100789398,-0.1068777069,0.0879269615,-0.1645461470,-0.0887783915,-0.0283368509,-0.0153975887,-0.0851252377,0.1861322075,-0.1623291969,0.0760222375,-0.2051149905,0.0518708117,-0.0841816887,0.1249237955,0.2184649408,-0.0670687482,0.2419813871,-0.2293158174,-0.1098846868,-0.0220244527,0.1821211576,-0.2173562497,0.1403811723,0.0615321323,-0.0545416474,-0.1521006227,-0.0719354972,-0.1344049871,0.0641818494,-0.0040914784,0.0074664224,0.0978024676,0.1601483077,0.0677137673,0.0338722058,0.1769869030,-0.0235541370,-0.0650038049,-0.0753517970,0.0291678086,-0.2872124016,0.0784997120,0.0646760687,0.0737290978,0.0179299824,-0.0270168651,-0.2393971235,0.2965335548,0.0618929267,-0.1485201567,0.0529641397,-0.1223761886,-0.1146040410,0.2031544447,0.3392155766,-0.0276304502,0.1555439830,0.1601828188,-0.0191355534,-0.1830542386,-0.1274894625,0.1630000174,-0.0288670026,-0.2436024249,0.0197052099,0.1076145917,0.0626661628,0.0918646529,-0.0102468766,0.0159910396,0.1386949122,-0.1059201956,0.0526223406,-0.1537876576,-0.0680354238,-0.0281458292,-0.2556731105,-0.0871232823,-0.2648524046,0.1040265262,-0.1966718137,0.0326278210,0.0587080754,0.1026298404,0.1181210056,0.0402133465,-0.1558677256,-0.0610383041,-0.0952873826,0.0068708793,-0.1833139807,-0.0806720257,0.1076471061,0.0421049111,-0.0450561270,-0.0655440390,-0.0374133736,-0.0600760132,-0.1125940233,-0.0538568795,-0.1208175197,-0.1743737161,-0.0486490503,0.0929818377,0.3332906961,0.1320555955,0.1625393033,0.0388240851,-0.0446746051,-0.0978233516,0.1046793088,-0.0253841914,-0.0156627856,-0.0926047564,0.1004252806,0.0000588738,-0.0854730383,-0.0830307007,-0.0787281692,-0.1198274717,-0.1204599887,0.0817946643,-0.1441177875,0.0644825995,-0.0563984551,-0.0088747526,-0.0793721825,0.0542291999,0.1676352471,0.1157028154,-0.0103716198,0.1599520892,-0.0274731871,0.1166905016,0.0226972234,0.0528062843,0.0141967488,0.1071524099,-0.0251060426,0.0011671125,0.1279693395,-0.1006431803,0.1073561013,-0.0090664243,-0.0843628868,0.0419856831,0.1334945410,-0.0185723323,0.0621375404,-0.0141726024,0.0345300920,-0.2617499232,0.0300340448,-0.0262706988,0.0923723876,0.0782863721,-0.0017838248,0.0157924872,0.0374935679,0.0542210713,-0.2275737077,0.0183766857,0.0196969565,-0.0459949784,0.0198836867,-0.0411973484,0.1745880991,-0.1010445654,-0.0011730095,-0.1237985939,0.0176026858,-0.1551935226,-0.1253038347,-0.0396363176,0.2304665446,-0.1721256375,-0.2456061691,-0.0325534418,-0.2730823159,0.1454523504,-0.0527907014,-0.1358084828,0.0152973644,0.1420973539,0.0388527773,-0.0984833315,0.1216767281,0.0380389467,0.2022311836,0.0616855323,0.0267871805,0.1819554716,0.0349377319,0.1091311574,-0.2539399564,-0.0508313365,-0.1244973913,0.1880246103,-0.2115360945,0.0378887914,-0.1111769676,-0.0440294892,-0.1247418225,0.0376016647,0.0476397239,0.0307556055,0.0600409918,-0.1364910156,0.0852571279,-0.0452782698,0.0302053522,0.0700865090,0.1829561293,-0.0947573856,-0.2470724285,0.1130357683,0.1928816736,0.0637980923,0.0968492553,-0.0328047760,-0.1168390363,-0.1401071101,-0.4642685354,-0.0976052657,0.0994029194,0.0815389678,0.1169224158,-0.2915319204,0.0660352334,0.1753875762,0.0067570405,-0.0100047328,-0.4157166779,0.0245415270,-0.0848608091,-0.0526132323,0.5475273132,0.1870854944,-0.1707859188,0.0931781158,0.2690212429,0.0693899691,0.0374734253,-0.1371438354,0.2575301230,0.0551362857,0.0202502441,0.0873692036,-0.1183458194,0.0055992133,-0.3411845267,0.2487010658,-0.1088513657,-0.0381798372,0.0626083538,0.0573825128,-0.1313014030,-0.1668347418,-0.0004908348,-0.0642441884,0.2071274519,-0.1064038351,0.1791651994,0.0696546733,-0.0535398461,-0.0795244724,0.0015694081,0.3992471695,-0.1541680396,0.1463634223,0.1176552773,0.1237772107,-0.0761261657,0.1456518620,-0.1468442380,-0.2653272450,-0.0337467231,-0.0943750888,0.0751838759,0.0876173675,-0.1520347595,-0.0118625537,0.0683930293,0.1313390136,-0.0140436385,0.0989595950,0.0139362002,-0.0867233202,-0.0144284004,0.1198548973,-0.0670668185,-0.2499450743,-0.0417795219,0.0310448390,-0.0077634738,-0.0650623590,-0.0488930829,-0.0779606625,-0.0939567089,0.0945677832,-0.0356208384,-0.0257723257,0.0529178679,-0.0767530501,-0.0143985366,0.1027282476,0.1144767478,0.0605836511,-0.0331475586,0.2028367519,-0.2869945467,0.0363833755,-0.0724048987,-0.1822529137,0.0537916720,0.0135327205,0.0519986488,-0.0454233363,0.0291775502,-0.0428201854,-0.0104799690,0.0643652752,0.0612368509,-0.1051653028,-0.1286502182,-0.1329645514,-0.0164003186,-0.1823084205,-0.0194401667,-0.0401435718,-0.1039716378,0.0937623456,-0.0931534171,0.0054110670,-0.1602320820,-0.0656458363,0.0841629356,-0.0054333266,0.0391213298,0.0200060830,-0.0012107652,0.0415840931,-0.2294182330,0.0412187725,0.2449144721,0.0468861647,-0.1139683798,-0.2841224372,-0.1624820828,-0.1503894329,-0.1725141704,-0.1673178077,0.1426409930,0.1579770595,-0.0664267614,-0.3891760409,0.0159341116,0.0811834186,-0.0769790113,0.1205188558,0.2774449289,0.2398383021,0.0517199412,-0.0186789278,0.1554285437,0.2025203556,-0.0970420241,0.1407463104,0.1891528815,0.0532555841,0.1367518008,-0.2033749819,0.1192487702,-0.0272399150,-0.0901791528,0.1532505751,-0.2000817955,0.2418568432,-0.1244731322,0.1945130676,-0.1526602507,-0.1064691544,0.1360781640,-0.0405064076,-0.0779897720,0.0289938767,-0.0099345408,-0.0433890224,0.2445589602,-0.0652658343,0.1908808351,0.1847732365,0.0086264741,0.2703039944,0.0233800896,-0.0183349401,-0.1491997540,0.0722376704,0.1577757895,0.2179974318,-0.2804014385,0.2346676886,-0.1808124483,-0.2597902715,0.2324893028,-0.1135141030,0.0526840836,-0.0157867596,0.0109942611,0.0317033231,-0.0168851111,0.1078284010,-0.0237448178,0.0368211232,-0.0410895608,-0.0566681400,-0.0870449468,-0.2175973803,0.0858554840,0.1542650014,-0.1341096163,-0.0726031289,0.0620002709,-0.0486890152,0.2605841756,-0.1232010275,-0.0071726008,-0.1205670014,0.0218436886,-0.0754259750,0.0896412730,-0.0936647132,-0.0055607725,0.0107762329,-0.0434042700,0.1135266200,-0.0373975001,0.1024760306,-0.0183292367,0.0026092522,0.1437876672,0.0137382429,0.1472210139,-0.0630139485,0.0701294690,-0.0220500510,0.0309476405,0.1632794887,-0.0329364687,0.0336777940,-0.0654115751,0.0045011090,0.0363347121,0.0096604079,-0.1273674071,0.0884653330,-0.1815259606,0.1263917834,-0.1675723791,-0.0028087737,0.0313545167,-0.0042473394,0.2076845318,-0.1021960005,0.1713714302,-0.1763159782,0.0277704131,-0.0219776332,0.0719362572,-0.0746060088,-0.0156069202,-0.0730599165,0.0964830294,0.1174025908,-0.0132842893,0.0937413201,-0.0103536323,-0.1119450629,-0.0540439188,-0.1097161472,-0.0648908988,-0.0631417409,-0.0631548092,0.0897026807,0.0577199757,0.0845584050,0.0588754155,-0.0394740738,0.4020813704,-0.0283110142,0.0040283152,-0.1135888919,-0.0574491993,-0.0020318246,0.0070575955,-0.0655889511,0.0885482654,0.0425834842,0.0066949306,0.0500264987,0.0268569533,-0.0189161450,-0.0863319114,0.0817510188,0.0317611583,-0.0265532155,-0.1188272908,0.0527114235,0.0022863867,-0.0870157778,0.1286257803,0.1299799830,-0.0038439739,-0.0325199701,-0.0014164682,-0.0388887748,0.0829415098,-0.0379605442,-0.0645131394,0.1766504347,-0.1415705383,0.1110068783,-0.1193053424,-0.1038300842,0.0255703330,0.0717661679,0.2363164872,0.0313049741,0.0771568269,-0.0649352297,-0.0765979066,-0.0762622952,0.1735957116,-0.1720243096,0.0249427408,-0.0862780064,0.1017162278,0.0381871127,0.1593835801,0.0137214400,-0.0536031425,-0.1355089545,0.0794830099,-0.1252879500,-0.1018126830,-0.0279816911,0.0084631778,-0.0881444812,0.0908229128,0.0676549971,0.2151324004,-0.0687331259,0.3445248604,-0.0560055636,-0.0829713345,-0.1577664465,0.0245534200,0.1328870207,0.1806988567,-0.1080543548,-0.0718896687,0.1477217972,-0.2199005038,0.0659479722,0.1028174907,-0.1022887602,0.0099816462,0.0866116285,0.0220874324,-0.0666417852,0.2194371670,0.0880571455,0.0857271552,-0.0189545453,0.1692215204,0.1110140383,-0.1463467330,-0.1410969496,-0.1223074496,-0.1073988900,0.0769952983,-0.0157982111,-0.1203048825,0.0964408666,-0.0667973235,-0.1250234097,-0.0801486894,0.1048717052,-0.0128826220,0.1024763286,0.2477756739,-0.0830450132,0.1011265814,-0.0265569109,-0.1208642721,-0.0809786320,0.2077924013,-0.1239232495,-0.0394740552,-0.1168361083,-0.0101405671,0.0948107690,0.0176802501,0.0022651153,0.0431345925,-0.0259202868,-0.0199314374,-0.0234559309,-0.0743478164,-0.0307300519,0.0777312070,0.0476539396,0.0267197248,-0.0182856619,-0.0339512378,0.0382208563,0.2451958060,-0.0494756587,0.0515612476,-0.0139412303,0.1618473083,0.1010062620,0.1413991451,-0.0369691774,0.0192414187,0.0521087870,-0.1915091723,0.0505980626,0.0896975845,-0.0281564612,-0.0055956198,0.0363754183,-0.0017263888,-0.0348918885,0.1688771248,0.0802794397,0.0046118754,0.0510992557,-0.0692556500,0.0036904756,-0.0354672186,0.0190755166,-0.0095992517,-0.0411392935,0.0364527479,0.0776904449,-0.0728591979,0.0399992988,-0.0970070735,-0.1483233869,0.0610027798,0.0877555683,-0.0557117276,-0.0055359048,0.2322943211,-0.0001388347,0.0659307167,0.0024181418,-0.0092418976,0.0238547977,0.1809064150,-0.1707747877,-0.1192068607,0.2506074905,0.0784681365,0.3239993453,0.3391753137,-0.0182430502,-0.2091806680,-0.4489712417,0.5337904096,-0.1751617491,0.0199012272,-0.6055711508,-0.0540755019,-0.0593792461,0.3801202476,0.0697471797,0.2238256037,-0.0562030822,0.1769941598,-0.0835439265,-0.1437828094,-0.2222428322,-0.3475265205,0.1055393219,0.0659712628,0.0435213186,-0.0645758510,0.3210199475,-0.3139335215,-0.0566390827,0.0846720859,-0.2528245747,-0.2309818864,0.1701612025,-0.2086722404,-0.0602115244,0.7119078636,0.1037055776,0.0425427593,-0.2953271568,0.2737228274,0.1202380210,-0.1651621610,-0.2401320040,-0.0633482486,-0.0987481251,0.0639954209,-0.1095714644,-0.0776747018,0.4505550265,0.1353443563,0.3779259324,0.1097768024,-0.7980117798,0.1510942429,0.2572330832,0.1443835199,0.0800273344,0.0811422914,0.0174013618,-0.1427921504,-0.1029961705,0.4363691807,-0.3952194154,-0.1318933070,-0.0499746539,0.0109320870,0.0382266939,-0.0548509397,-0.1087146997,0.0631942451,0.0418803692,-0.0871503353,-0.0143542560,-0.0119546307,0.0152848745,-0.0970784724,-0.1468794942,-0.0252853278,-0.0286233574,-0.0556812733,0.0957029164,0.1783177853,0.0678001344,0.1046632603,0.0310920123,0.1369115263,0.0821423009,0.0658155233,-0.0039431029,0.0098173348,0.0410937443,-0.0728332251,-0.0205856748,0.0305932518,-0.0469046868,0.0059855343,-0.0157780964,-0.1623929143,0.0547702461,0.1809854358,0.1250418276,-0.0068992013,-0.0709174052,-0.0635344163,-0.0211419538,-0.0168941636,-0.0356545746,0.0847819373,0.0234559085,-0.0226486493,0.0622975826,0.0353337042,-0.0376825035,0.0141618038,0.0150373382,0.0516523682,0.1428532302,-0.0139100840,-0.0421537161,0.1993900687,0.0333613418,0.0099280858,0.0917757675,-0.0066125011,-0.0384468101,0.1578189582,0.0162339061,-0.1211517081,-0.0436914638,0.1115844995,0.1325743198,-0.0624041967,-0.0193585400,0.0155330859,-0.0818792507,-0.0476968363,-0.0747586489,0.0458261035,-0.2323987186,0.0031365603,0.0091968738,0.0566871054,-0.0258077513,-0.0516892411,0.0858805254,0.3562014401,0.0541722178,0.1663232148,-0.0956057906,-0.0829150155,0.0531663187,-0.0317140818,0.0176528413,0.0407100804,0.0510505103,-0.0951850936,-0.0327517837,0.0727426633,-0.1110050753,0.0835468397,0.0023846766,-0.0629906058,0.0497239046,0.0934943035,0.1076136678,-0.0403811447,-0.1235326976,0.0327861011,0.0543425009,0.0133155501,-0.0562720932,0.0367097966,0.0882415399,0.1202228293,0.0292926803,-0.0129648717,0.0953174159,-0.0479454882,0.1408566386,0.0176248662,0.0092852712,0.0974731892,0.0093075121,0.2778959274,0.0714859068,-0.0125523554,-0.0168521199,-0.0275725033,-0.0372565389,0.1909609586,-0.0594837070,-0.0226353817,-0.0693120658,0.1428101212,0.0277246404,0.1758092493,0.0689681992,-0.1009372845,-0.2869803905,0.0087625217,-0.0603410453,-0.0944477096,0.0434760116,0.1509094685,-0.1038881913,0.1622951776,0.0503829792,0.0879821554,-0.0637782812,0.2419934720,-0.0981254578,-0.0882142708,-0.1574005187,0.1314769238,0.0943860412,0.0724482611,-0.0512564741,-0.0609315895,0.1407086849,-0.0878568068,0.0966584161,0.0680672377,0.0290345252,0.0961086228,0.2128030807,0.0428055897,-0.0290349778,0.1092514470,0.0120091196,0.0628839880,-0.0596870482,0.2058169395,0.1664192379,-0.1261100918,-0.0215109587,-0.1373098195,-0.0833280757,0.0647910237,-0.0822462514,-0.0624179877,0.2747689486,-0.1391798854,0.0627018437,-0.1293530166,0.1321685463,-0.1369509250,0.1551677585,0.1586119980,0.0001836967,0.0897860602,-0.0926544890,-0.1678766906,-0.0112557262,0.2046159208,-0.2721838355,0.0236702953,-0.0695420206,0.0134717906,-0.0677294582,-0.0745262578,0.0756033584,-0.0271870065,0.0448942445,0.1194650307,0.0376334116,-0.0463751107,-0.0016898407,0.0024868280,0.1739954650,-0.0777941570,0.0012245880,0.0101988865,0.0200792048,0.5261466503,0.0095597161,0.0627519414,0.0702814013,-0.0787262246,-0.0294764824,0.1027607247,-0.0524927974,-0.0740859509,-0.0395001918,-0.0264480691,0.0764764175,0.0575549267,-0.0282800961,0.5929518938,-0.0319279134,0.0268094279,0.0431323200,-0.1039224789,0.0135477344,0.0640771613,0.0468846709,-0.0312597416,0.0511245579,-0.0257979240,0.0445852652,-0.0199024417,-0.0050305999,0.0029990959,-0.0044705817,-0.0928432122,-0.1166891456,0.0712614059,-0.1229689941,0.0555999093,0.0467542075,0.0968618393,0.0080170333,0.2141146809,0.0083223237,0.0238928795,-0.0648126453,0.0167023148,-0.0026909055,-0.0419763587,0.1608696133,-0.1672715694,-0.0579159781,-0.0055216830,0.0773501396,-0.0489062294,0.0428889506,0.0556566119,-0.0758946314,0.0021263310,0.0493278019,-0.1232346818,-0.1426269859,0.0021828485,-0.1216028929,-0.0865783766,-0.0162884630,0.0384762064,-0.0137416786,0.3887516558,0.0354623348,0.1038016751,-0.0438506715,-0.0762623772,0.0907598287,0.1079699770,-0.0574935339,-0.1237329021,-0.0280340351,-0.0032431458,0.0600770675,-0.0062891194,0.0349031240,-0.0535772666,0.0870803818,-0.1511236280,0.0023250952,-0.0785517767,0.0888118744,0.0389940627,-0.0885988995,0.0018093621,0.1835928261,0.0683714747,0.0870704502,-0.1121805459,0.0913256705,0.0328306109,0.1697444171,-0.0200001057,0.1586297005,-0.0263120197,0.2269378304,-0.0062567201,-0.1066510677,0.0602805801,-0.0521074384,0.1951330453,-0.0141707323,-0.0479333028,0.0046476265,0.0557675734,-0.0687896833,0.1542772651,-0.1618496329,0.1025688052,-0.2325774729,-0.1354876459,-0.0612022467,-0.0874467939,0.0640512854,0.1586454660,0.1347461641,0.1276394725,0.1977744550,-0.2155422121,-0.1246131882,-0.0248846430,-0.0251215026,-0.1890695840,-0.1977900714,0.0951862261,-0.0504401810,-0.1469646990,-0.0995246544,0.2060981691,-0.0288449060,-0.1775005311,-0.1510049701,0.3716019094,-0.2302697301,-0.3375968337,-0.1585054845,-0.0821174234,0.1357638687,-0.2272889465,-0.0541341864,-0.0541841984,-0.0457898118,-0.0639518946,-0.0454174764,0.0965200663,-0.0742077902,0.1256753355,0.0718451887,-0.1866298765,0.0871770307,0.1984856725,0.2016447783,-0.1548640430,0.1939174533,-0.2064065337,0.3751717806,-0.1751126796,-0.0794764087,-0.0586575158,0.0585368723,-0.0954248160,-0.0055613820,0.0875305980,-0.1364473104,-0.0279008355,-0.1521024257,0.0671850219,-0.1078471690,0.1988226324,0.1249858588,0.1353520304,0.0651921779,0.1330825686,-0.1756319255,-0.2680453956,-0.1175669730,-0.0566197261,0.1284219623,0.2344864756,0.0813156292,0.2270145416,0.2069607675,-0.1821069419,-0.0026115377,0.0208781268,0.0954589546,-0.1297361851,-0.2828442156,0.0597475804,-0.1106940582,-0.0115235010,-0.0627366453,0.2658621967,-0.0073455842,-0.1554233879,-0.1401216388,0.2857437730,-0.2358476371,-0.2488352358,-0.1755836159,-0.0501327813,0.1439491510,-0.2529129386,0.1494239420,0.0783874467,0.0116653135,0.0412336513,-0.0632747635,0.1448660791,-0.0868330747,0.1256838441,0.0903964266,-0.1634278744,0.1065063179,0.3215549290,0.3568452895,-0.1626670510,0.2040104717,-0.2967379391,0.3029413223,-0.2047247738,-0.1224257573,-0.0237860810,0.0651261806,-0.0845933929,-0.0163325723,0.0450168066,-0.1204091832,-0.0032920521,-0.1912193894,0.0416021124,-0.1076533496,0.2159324884,0.1422318518,0.3709959686,-0.0481142066,-0.0692381784,-0.2091547400,-0.1698343605,0.0464637913,-0.1223457977,0.0010087719,0.1135633513,0.0299845301,-0.0047838064,0.1667837948,-0.1362030506,-0.0543137193,-0.0514634065,-0.1817160249,-0.2097516358,-0.1745246351,0.1791079938,-0.0038320336,0.0173947737,0.0006308760,0.1555341929,-0.1148840338,-0.2333466560,-0.0703316480,0.2417634875,-0.1793499440,-0.3774138689,-0.1456912607,-0.1028706729,0.0617844984,-0.2496943474,0.0743519813,-0.1563168168,0.0376539640,-0.1353217810,-0.0259997733,-0.0317911655,-0.0619178861,0.1411099881,-0.0606998503,-0.0684447065,0.1721351892,0.1952717751,0.1306156218,-0.1771819592,0.1531309932,-0.1772216409,0.3361293972,-0.0970562994,0.0446487516,-0.0434801653,0.3252749443,-0.0686627850,-0.0839421228,0.0695543066,-0.1501767933,0.0503477640,-0.1011339575,-0.0319856890,-0.0071275951,0.1495698094,0.0800860673,0.0269681122,-0.0135770021,-0.2006545216,0.0230643265,0.0251259673,0.0989197940,-0.1225531474,-0.2148997039,0.0214578863,0.0268609952,0.0259380694,-0.1519641727,0.1090960428,-0.1146927699,-0.1384079009,0.0081839049,-0.0270913858,-0.0364635587,-0.1382011026,0.1831929684,0.3142229319,0.1711502373,0.0716148242,0.0103883445,-0.0187424943,0.0607744381,-0.1672535092,0.0878631324,0.1480934918,0.0302927289,0.0419692881,-0.1781609505,0.0538217574,-0.0873965845,-0.0963420719,-0.1092293337,-0.0451344922,0.2247309536,0.0693273097,0.1352570057,-0.1826100498,-0.0535688251,-0.0370948240,-0.0715040714,-0.0126757035,-0.0153033631,0.0331237949,0.0758428648,0.1212751567,0.0260037500,0.1361486614,0.0576020814,-0.0219073892,0.1035442948,-0.0024652241,-0.0465386733,0.1433345377,-0.0191423632,0.2297597975,0.1344189644,-0.1489363611,0.0333164074,0.0717211962,-0.1585342437,0.2749439180,-0.0162847620,-0.1996854544,-0.0954837799,-0.0116876131,0.0549895689,0.0021924789,-0.0972768366,-0.0074041621,-0.0724627897,-0.0570499338,0.0664093792,-0.1510678828,0.1923726946,-0.1282856911,-0.3474366069,-0.0193385594,0.0093197580,0.1542250216,0.0288659167,0.4467750788,0.1205055341,0.0155745447,-0.0592232198,-0.0416209996,0.0099026058,0.2336438894,-0.0742147192,-0.2501200140,0.0342017338,-0.2152012289,-0.0336121656,0.0529891104,-0.2212561667,0.2523373067,-0.0496756323,-0.2302078307,0.0154308202,0.0925816223,0.2652183175,0.0667948052,-0.2269934565,0.0197993107,0.0920581594,-0.0344217643,0.0573500246,-0.0915844887,0.0506451055,0.0506293140,0.1901277751,-0.1495565027,0.0485575460,0.0605098642,-0.0048479042,-0.0888793319,0.3745438159,0.1560556740,-0.0484295115,0.4758545756,-0.0567332059,-0.1364794672,0.0740504712,-0.0840560496,-0.1999702752,0.2019280046,0.0184630230,0.0431406237,-0.1329906881,-0.0672866106,0.0159434099,0.1184266061,0.1364171654,-0.0009640090,-0.0135655310,0.0501482859,0.0947670490,-0.2199856639,0.1509768218,-0.0117718391,-0.0469320789,-0.0124051543,-0.0371104740,0.1153016239,-0.1477361321,-0.0783549249,-0.0950518847,0.0126902582,-0.2006368041,0.0021388656,-0.0992254019,0.2224803418,-0.2152587920,-0.1485535800,-0.0280433949,-0.0512528196,0.1545161754,-0.0743703321,0.0186230857,0.0996674150,0.1114663854,0.0276548211,-0.1012656987,0.0267057437,0.0363313481,0.1710687876,0.0447705686,-0.0026070431,0.1641735137,0.0293646492,0.1577629000,-0.2037893236,0.0374013372,-0.1510698497,0.1684909165,-0.1930221617,0.0034544619,-0.1485093236,0.0508307479,-0.1413835585,0.0750837773,-0.0203304533,0.0288341418,0.1095760986,-0.1069594175,0.0815480798,-0.0950170979,-0.0163207389,0.0640636981,0.1740209013,-0.1598504335,-0.1707534790,0.1153565943,-0.1281203628,0.0703000426,-0.0297750197,0.0005004922,0.0087958984,0.0398131683,0.0266990755,-0.0462443866,-0.0335487239,-0.0383977108,0.0588838421,-0.1203652024,-0.0414711423,-0.0079108113,-0.0343022160,-0.0257702675,0.3392336965,0.0082328832,0.0202513933,-0.0052700918,-0.1624061167,-0.0017160672,0.0031979526,-0.0603275672,0.0344934687,0.0418915823,0.1083888113,0.0132531114,0.0959486216,0.0009019907,0.0812610537,0.0040319138,-0.0729938522,0.0469688959,0.0261871107,0.1701377183,-0.0574342236,-0.0944530144,-0.0015920599,0.0346466601,0.0150937364,0.1486974210,-0.0575131699,-0.0231991075,-0.1039964855,0.0192160606,0.0751176775,0.1106927991,-0.0115251113,0.0260658227,-0.1100969836,-0.1256894022,0.0664318725,-0.0315081887,0.2690110505,-0.0118942922,-0.0394135937,0.0151824299,0.0467823222,-0.0846840143,0.0777398646,-0.0491239801,-0.1418277174,-0.1851807386,-0.2696481943,-0.1121997684,-0.1105824113,-0.0036243873,0.0536863282,-0.2754016519,-0.2286999226,0.0893074870,-0.1343209594,0.3869964182,-0.0986497179,-0.0622785278,-0.0420940332,-0.1302974820,0.0108537572,-0.0439605825,0.4717923105,0.1139164940,0.1408469081,-0.2689657211,-0.0464034863,-0.0036600695,0.0675256252,-0.1002816185,-0.0500193313,-0.2038940489,0.0346074700,0.1034527272,-0.1311224252,0.1716637313,0.1818637699,0.1734353602,-0.1497533917,0.1503622234,-0.1232259870,0.0437195413,-0.0260808188,-0.0980293080,0.0428632684,0.1145798117,0.1756131053,0.3350673020,-0.1075787395,0.2012597173,-0.1867573261,0.2297282368,0.0098827090,0.2833307087,-0.1971005052,0.1722210944,-0.0442830548,0.2521200776,-0.1852747053,-0.1615955234,0.3792525530,-0.0056396197,-0.1331806481,0.0757669061,-0.1184064597,-0.0293686483,0.2074525356,-0.3911235034,0.1318340600,0.0447725542,0.1120416746,0.0953591838,0.3150099516,0.2598106265,-0.2326002270,-0.1373350620,-0.1071364582,-0.1702036709,-0.1968214661,0.3482846320,-0.1579523981,0.0235343259,0.1124737337,0.2469449192,0.2883638442,-0.3246403933,-0.5263201594,-0.3587109149,-0.2952419817,-0.1508079469,0.0483443551,0.1637490839,0.0962131396,-0.1378678381,0.0183967147,0.1539045125,-0.2096770257,0.1158190742,0.1465354860,0.2246759087,0.2513349652,0.3090342581,0.2676803172,-0.3160231113,-0.2674699426,0.1166431457,0.2588133812,-0.0322632678,0.2227448225,0.2649732232,-0.2247878760,-0.1516235769,-0.2974033654,-0.2765178978,0.1304091215,-0.3086567819,-0.2773923278,0.0612134673,-0.2812979817,-0.1025601551,-0.3391678035,-0.1038938314,-0.3365772069,0.2548848391,0.0710008368,-0.0457096733,0.2973695099,-0.2527517080,-0.2510100603,-0.1140699014,0.1372229010,-0.1301836222,0.0599124618,-0.0906852707,-0.0875941366,-0.0327067524,-0.0235460754,0.0227718186,0.0010141723,-0.1887267232,-0.0346543342,0.0158490278,-0.0423303358,-0.0779957324,0.0136814276,0.1622741520,0.0357953049,-0.0588057116,-0.0388135202,0.0242701378,0.4470413625,-0.0086272322,0.0697228536,-0.1515133083,0.0757730976,-0.0848370120,0.0710086450,-0.1468906552,-0.0942130908,-0.1102982387,-0.1724017113,0.1179534793,-0.1220756918,0.0713970140,-0.0820546672,0.1851179153,-0.0227180924,0.0152527830,0.0610874183,-0.1596014202,0.0036887079,-0.0700936019,0.0594229139,0.0804921761,0.0444984585,0.1302502453,-0.0356488898,0.1080111116,-0.0498866551,0.1055503041,-0.0168687180,0.2209905833,-0.0901500508,0.1575942487,0.0619397424,-0.0352521315,-0.0745599717,0.0147943413,0.1433295012,-0.0339630544,0.0102304127,-0.0927695483,-0.0288587641,0.1566862762,0.2158302069,-0.2624127269,-0.2350557894,0.0869741365,0.1495311558,0.0700596645,0.0162266530,-0.1903598458,-0.0967110693,-0.0285008270,-0.1899445951,-0.1171403900,0.1270360798,0.0501339100,-0.0680667832,-0.3743488789,0.0388078876,0.1497569382,-0.1117033884,0.0929541588,0.2343998849,0.0883431062,0.0063934857,0.1079184115,0.1448881924,0.2175786793,-0.1057953313,0.1177972704,0.1691668183,0.1921065450,-0.0386005081,-0.1265003681,0.2452072948,-0.0340554640,-0.0112837162,-0.0659648776,-0.1400014460,0.1545269787,0.0364181995,0.3069184124,-0.1211052760,-0.0651015565,0.0179701746,-0.0630336180,-0.1193589121,-0.1395967156,0.0796108991,-0.1410356015,0.1568700075,0.0196739305,0.1315158904,0.0204623863,0.0774888545,-0.1661461890,0.0213217027,0.1461196989,-0.1341879368,0.0944623351,0.2304276675,0.1877983809,-0.1265097558,0.2098163962,-0.0695854351,-0.2445591390,-0.0318150781,0.0259186830,0.0573526174,-0.1734095961,-0.0617426410,-0.0752357766,-0.0532983467,0.0608082898,0.1504188180,0.1260092407,0.0659658834,0.0992941484,-0.1363482624,-0.0877199844,-0.0199353248,-0.0284826383,-0.0720433071,-0.0953524709,0.0342628546,0.0339790210,0.0604104437,0.0089353034,0.1479723752,0.0637420788,-0.0852832273,-0.0516441055,0.3069207668,-0.1932536662,-0.2755123079,-0.0403880440,-0.2000821084,0.1104101986,-0.0860262513,-0.1481265128,0.0558558479,-0.1262760907,-0.0116337882,-0.0129765728,0.1950106770,0.0205619503,0.1552087963,0.0663010776,-0.0975626186,0.0067010722,0.1248748899,0.1224999577,-0.0188927352,0.0863030627,-0.1465324163,0.1134258732,-0.1928928047,-0.1039395556,0.0430953391,-0.1918865591,-0.0029124042,0.0850533992,0.1534978896,-0.1342547238,0.0145564638,-0.1169216186,0.0943819880,-0.0224256106,0.1369024813,0.0601942427,0.0862233192,0.0605447367,-0.0830438733,-0.1674739867,0.1603980064,-0.0068914839,-0.0656930432,-0.0963258222,-0.0068860743,0.0595740713,-0.3934969604,0.0554931201,0.0285580587,0.1959747374,-0.1752648801,0.0284533314,-0.0100454520,-0.0012227459,-0.0008776395,0.1188520193,-0.1460447907,0.0575991049,0.0600689799,0.0306727644,-0.2875829637,-0.1434414089,-0.0113066472,0.0998205468,-0.1295632720,-0.0081950976,-0.0390940085,-0.1018999293,0.0693366006,-0.1512033939,-0.2141766548,-0.1356242150,-0.0393425152,0.0553339384,0.0305785406,0.0874913707,-0.0230437014,0.1660031676,-0.0630012825,-0.0324965753,0.0373376347,-0.3783320487,0.0110516092,0.0240985081,0.1072225645,-0.0157163814,0.0726261958,-0.0641674772,0.0113884006,0.0649028420,0.0513584428,0.3607833385,0.1995033175,-0.0545536242,-0.0398759358,0.0577645935,-0.0548785068,0.0645441785,0.1014620438,0.0402349345,-0.3969634175,0.0384758301,-0.1872163117,0.0226867907,0.1063384935,0.0831189677,-0.0322860554,-0.2385654896,-0.1289385855,-0.0606286824,-0.0805340707,-0.0776889995,0.1378762126,0.1912235916,-0.0502677523,-0.0786881521,0.0811747834,0.0392788500,-0.0531154498,0.1186416969,0.3578529358,0.0870036334,0.0033515017,-0.0603100061,-0.0546630770,0.1186599061,-0.1247148141,0.1599093676,0.2045583427,0.1161278784,0.0645591989,-0.1344771832,0.1437308192,-0.2519283295,-0.1207418218,-0.0295924041,-0.0365333594,0.2309620827,-0.1518753022,0.2929039001,-0.2112839818,-0.0478839315,0.0911369026,-0.0883761495,-0.0516047180,-0.0349043012,-0.0635577440,-0.0942824185,0.2119783908,-0.0245664287,0.1437110752,0.1747436672,-0.0286138803,0.1403780729,-0.0357846953,-0.0502294563,0.1434018016,0.0654598773,0.2159886807,0.2237197161,-0.1922852248,0.1332232952,-0.0502035692,-0.2221435010,0.0644487962,-0.0905426294,0.0390745662,-0.1418672800,-0.0188542344,0.0225396603,-0.0185840726,0.0272690393,0.0039588213,0.0355666950,0.0004715004,0.0285397600,-0.1286028028,-0.0148946727,-0.0559587181,-0.1237291023,-0.0329176523,-0.0026350506,0.0752695203,-0.0036807542,0.0218385067,-0.0689484254,0.0672764406,0.0401288830,-0.1223960966,0.0482916534,0.3149069548,-0.1569014043,-0.2055830956,0.0317203291,-0.1062729880,0.0654531643,-0.0639865845,0.0573555604,-0.0793787092,0.0095903315,-0.0554147214,-0.0766978934,0.2166282684,-0.0037401342,0.1287780702,-0.0608768128,-0.0242925435,0.0367513634,0.0005314872,0.0604803339,-0.0495474227,-0.0003971589,-0.0541782118,0.0485781394,-0.1416205168,0.0044957660,-0.0075652748,-0.1462445110,-0.0087041389,0.0733715594,-0.0027766505,-0.0289362352,0.1073123366,-0.1393624544,0.0414011590,-0.0130468244,0.0111450134,0.0196286179,0.0058101928,-0.0184704214,-0.3609029949,0.1890662014,0.2938284874,0.2669532001,0.1721141189,-0.1676034480,-0.3453309834,-0.1217708588,-0.1322491169,-0.2144386172,0.1750500053,0.1114245206,-0.1507570297,-0.4345867932,0.1794107556,0.2752897739,-0.0215363931,0.0412333235,0.1821214557,0.0065876129,-0.1560536921,-0.0898889229,0.1136557385,0.2731333673,-0.1381402612,0.1493597627,0.1984997690,0.3261342943,-0.0407972261,-0.2184626907,0.3580354154,-0.1601613909,-0.2310283482,0.0605044700,-0.1265083700,0.1091144904,-0.0621347465,0.4822482169,-0.1178562939,-0.2464414537,0.2095225155,-0.1043824852,-0.2572583258,-0.2761076093,-0.0676653758,-0.2175907940,0.3024670184,-0.1336538494,0.1726894975,0.1073330268,-0.0691316053,0.1087143794,-0.1240780205,0.0421499833,-0.0414160676,0.2521638572,0.3530175090,0.2195092440,-0.2011622488,0.1889522076,-0.1981286108,-0.4202588201,0.0571384393,0.0437609218,0.0839888602,-0.0943969712,0.0283699296,-0.0205189586,0.0396082662,0.0401742384,-0.0068811947,-0.1472270340,-0.0699423105,-0.0889452845,-0.0576013029,-0.0989442319,-0.0007734031,0.1245953590,0.0872412175,-0.0173248537,0.0199550949,-0.1218607202,0.4691391587,-0.0548827536,-0.0118564693,-0.1326669157,0.0457218997,0.0077975914,0.0586685501,-0.0613256507,0.0274160821,0.0147930011,-0.0139152873,0.1452774704,-0.0537010878,0.2010140419,-0.0164458118,0.1330779344,0.0652116537,0.0253245980,0.0944515690,-0.0936024934,0.0630471408,0.0193882808,0.1904582977,0.1300136000,-0.0143334065,0.1722038984,-0.0411702245,-0.0245440416,-0.0495332479,-0.0463167727,-0.0952785537,0.2174203992,-0.1888572574,0.1170490682,-0.0857983381,-0.0422809869,-0.1240916550,0.0265904199,0.1230296940,-0.0458633415,0.0794639960,-0.1208932400,-0.0849090889,0.0130005395,0.2090333104,-0.2437112033,0.1718924344,-0.2413207144,0.0111173009,-0.0818077400,0.1361103803,0.0766407624,0.0308049396,-0.1337900162,0.0495747477,0.0831039846,-0.1571457237,-0.0398263298,0.0316224210,0.1212613583,0.0647456646,0.0149756232,0.1464817524,-0.1564267427,0.1983935088,-0.1569159478,-0.0321999602,-0.0884896368,0.0146224741,0.0531313270,0.2771431506,-0.2375648618,-0.2157589495,0.0010153318,-0.2498673499,0.1191626787,-0.1222322434,-0.0355442800,0.0463596992,0.1438724846,0.1028586850,-0.1321655065,0.1935169250,-0.1200613603,0.2007377893,0.0199692938,0.0708443299,0.2208580375,-0.0403059982,0.0524920784,-0.1713105589,-0.0378462560,-0.1325396150,0.0993560702,-0.2568249106,0.1406025290,-0.0571409091,-0.0546758100,-0.1594942957,0.0872249082,-0.0008097632,0.0861460194,-0.0315167904,-0.1382305324,0.1511379182,-0.1643407047,-0.0384670123,0.1148147583,0.1098760441,-0.1434145123,-0.0365404189,0.0143804252,-0.0734741762,0.0856698006,-0.1165328175,0.0280059185,0.0583446436,0.0069533037,-0.0801097602,-0.0693081766,-0.0434126817,-0.0496374592,-0.0473682433,0.0172395594,-0.0500873886,-0.1016633958,-0.0256134942,0.0265411325,0.2131391317,0.1110110432,0.0469791703,-0.0099851014,-0.0182550345,-0.0523745790,-0.0009978352,-0.0213032160,0.0517430268,0.0147599531,0.1324720681,-0.0055080969,-0.0575685762,-0.0433879793,-0.2412447482,-0.0242064148,-0.0345690921,0.0657847002,-0.1005695388,-0.0340981632,-0.0984877422,-0.0966571644,-0.0344870090,-0.0000098449,0.1303532273,0.1047996283,0.0606690608,0.0728883669,0.0093783112,0.0587677546,0.0058058649,0.0756495520,-0.0692069009,0.1304339617,-0.0508043505,-0.1089060158,0.1027761027,-0.0899017304,0.1832490861,0.0115933241,-0.0667449981,0.0072873547,0.0261565745,-0.0069230800,0.2459627092,-0.0815200433,-0.0251272973,-0.0124030812,-0.1523312181,-0.0931602195,-0.0779122636,0.0822975263,0.0490308441,0.1077083349,0.0172881577,0.0091041988,-0.1538560390,0.3193777204,-0.1767537743,-0.0183283333,-0.1455960572,-0.1393976361,-0.0294005629,-0.0570566691,0.1611456126,0.0214133915,0.1273456365,0.0281290580,-0.0403728634,-0.0893411338,0.1748781204,-0.1918296814,-0.0857605711,-0.0541853681,0.0726956651,0.1554168165,-0.0682197735,0.0262405090,0.2161609530,-0.1046369746,0.0811149552,0.0274096746,0.0095452387,0.0967717245,0.0384974629,-0.0834251568,-0.0845886171,-0.0013790653,0.0698418245,0.2127147019,-0.0225646868,0.1096839011,-0.1596820503,0.0541038886,0.0276040044,-0.0688883886,-0.0147110336,-0.1664563566,-0.1176085547,0.0761576220,0.0851233155,-0.0941805989,0.2171607167,-0.1169104874,-0.0234445352,-0.1236363873,0.0588645972,-0.0046897596,0.1342248619,0.0080270879,-0.0971258134,-0.0960532576,0.0961552486,0.1016725004,0.2128926218,0.0111470260,-0.0982714742,-0.2050755918,-0.0563471094,-0.0951382965,-0.0767956376,0.0628970042,0.0771112218,-0.2432800829,0.1572494358,0.1841227710,0.1005852520,-0.0519147702,0.4825957716,-0.0319956206,-0.1256812364,-0.1056221202,-0.0539809987,0.1701458097,0.1118121669,-0.0028946453,-0.0824117362,0.1568547636,-0.1434777975,-0.0167635698,0.1075273603,0.0050075678,0.1273321360,0.1786882430,-0.0396140628,-0.0062515214,0.1402484924,0.2312184870,0.0824491531,-0.1094891801,0.2053914815,0.1050261259,-0.1874381900,-0.0286233425,-0.1572996527,-0.1989566237,0.0913725123,-0.0656702146,-0.0967083201,0.2377542555,-0.1017636135,-0.0363612212,-0.1457402557,0.1813897491,-0.1462170631,0.1357736886,0.3401094973,-0.0007411292,0.0544727705,0.0030215485,-0.2292297333,-0.1411699355,0.0514885448,-0.1737973541,-0.0885999650,0.0294517893,0.0012062694,0.0275178161,-0.2267322689,-0.0323363654,0.0200384427,0.0137382504,0.0056934715,-0.0303824954,0.0038411664,-0.0998770893,-0.1573598832,0.1627866030,-0.0203953311,-0.1611337364,-0.1979584545,0.1345622987,0.4039281011,0.1357333511,0.1764433533,0.0709098577,-0.0418048166,-0.0180015452,-0.0074324221,-0.0081462534,0.0921710059,-0.0163965132,0.1888686866,-0.1158856302,-0.1181871444,-0.1357450783,-0.1547247469,-0.1231502146,-0.1169264689,0.1173440292,-0.0424362421,-0.0792004913,-0.1894843429,-0.1184274107,-0.0718480796,-0.0119125657,0.0431547500,0.1311871856,0.2120326757,0.0301878341,0.0348027758,0.0224616379,0.0324199907,0.0132023161,0.0380686447,0.2057555318,0.1214574054,-0.1214244291,0.1589167565,-0.0641175359,0.1536206454,0.0223638229,-0.1404671967,0.0937370807,0.0331212245,-0.0023066315,0.3278526962,-0.0361691304,-0.0967162475,0.0393333398,-0.1200479195,0.0697723776,-0.0220045410,0.0789674520,0.0483072549,0.0316669270,-0.0340146869,-0.0651716068,-0.1053646281,0.1219881773,0.0206945837,-0.0971515328,-0.0402050950,-0.0779167116,0.0433421955,-0.0463927761,0.2230017185,-0.0371490046,0.0601657666,-0.0595359541,-0.0700268298,-0.0710797831,0.0945624784,-0.1074750870,0.0248967428,0.0393734798,0.2023642510,0.0862635598,-0.0120682232,0.0198195111,-0.0191247519,-0.0159920361,-0.0503045395,0.0002384203,-0.0523995347,0.1423825622,-0.0029644594,-0.1171037108,0.0251439288,0.0625544712,0.0918388739,0.1985009611,-0.0820684135,0.0275853351,-0.2066573054,0.0146334143,0.0685994551,0.0812712684,-0.1407217234,0.0806436166,-0.2282221168,-0.0646126792,0.0219697598,-0.0151640158,0.2158155739,-0.0450236797,0.0117866779,-0.0032252416,0.0448570177,-0.0512690619,0.1961732656,-0.0506856516,-0.1151681021,-0.1137805730,0.0377659202,0.1040600836,-0.1253880858,-0.0889734998,0.0558693297,0.0774931982,0.0927908123,-0.0154977003,-0.0295014512,-0.0309718214,-0.2791321874,0.0413890257,-0.0454894379,-0.0585452616,-0.0301017333,0.1125974134,0.0784035325,0.0225856546,0.0915142074,0.0034005612,-0.0659475103,-0.0806718990,0.0243016500,-0.0226695444,-0.0411925651,-0.0198670737,0.0299576893,0.0684772655,-0.0489471219,-0.1188915148,-0.2313212156,-0.1766892523,-0.0542617626,0.0304993689,-0.0567090213,0.0048017832,-0.0663267821,-0.0897805691,-0.0977440551,0.0193802398,0.0574977808,-0.0274278000,0.0283180960,0.0729993507,0.0403263532,0.0121156750,-0.0003406153,-0.0168838184,-0.0507271551,0.1153246388,-0.0429256782,-0.1579695195,0.1811060756,-0.0756469294,0.0607871786,0.0567112975,-0.0679467767,-0.0169647150,0.1109074578,-0.0335642695,0.2191487998,-0.0491657853,-0.0124383550,-0.2041538656,-0.0667120665,-0.0555408709,-0.0400589220,0.0191644467,0.1274071038,0.0886516348,-0.0403502397,0.1784193814,-0.0993414000,-0.0071796086,-0.0955037922,-0.1454170197,-0.2144643068,-0.1334824115,-0.0172812901,0.0221405029,0.1403997689,0.0335019678,0.1701282114,0.0356264375,-0.1858935654,0.0157167260,0.2978398204,-0.1053758487,-0.2371313423,-0.1158602759,-0.0783303902,0.0438893437,-0.0657274798,-0.0624919571,-0.0330637805,-0.0839180276,-0.1038875058,-0.0111369947,0.1816523671,0.0066835540,0.1386705041,0.0171013810,-0.0922373235,0.0117974151,0.1198250949,0.1043879986,-0.0766930431,0.0984266251,-0.1230042651,0.2983304858,-0.2131923437,-0.0646763742,0.0054600975,-0.0922552422,-0.0232274495,0.0785243958,0.0776929930,-0.1419219226,0.1261382997,-0.1273396909,-0.0308579281,0.0666824877,0.0653634295,0.0540921800,0.0524397492,0.0504847020,0.1088396907,-0.0495728701,0.0757951140,0.0177068412,0.2306809574,0.2359376997,-0.1224407032,-0.3373690844,-0.0224967897,-0.0625438392,-0.2350759059,-0.0693150982,0.1093714014,-0.0339513496,0.0988979340,0.0895848647,0.2230702788,-0.1912584007,0.5968008637,-0.2296180427,-0.1606235802,-0.2259570211,0.0447039008,0.1057146192,0.2075484991,-0.1635476649,-0.0884115696,0.1236726865,-0.0816058442,0.1847462654,0.0089378580,0.2018175274,0.0434878692,0.2251185775,0.1201193854,-0.1485227942,0.1737748235,-0.0132948644,0.2259607464,-0.0132890949,0.2254915982,0.3033013344,-0.1029303297,-0.0339851342,-0.1652992368,-0.1007312834,0.0143485703,-0.0562518910,-0.0811677650,0.3668526709,-0.1824301779,0.0984209329,-0.1896462142,0.0787102729,-0.1322651058,0.1791061014,0.2259954214,-0.1090608165,0.2251763046,-0.2253709137,-0.1865206063,-0.0590725616,0.1715001315,-0.3010155857,-0.0441420116,-0.1050111800,0.0222523529,-0.0950609967,0.0152805001,0.0147864036,-0.0418848842,-0.1417638808,-0.1107363626,-0.0009819230,-0.0639798939,0.0033679705,0.0297777783,-0.0266289450,0.0121612446,-0.0228885319,-0.0380481072,0.0004882903,0.4905532002,0.0023673915,0.1175548732,-0.0659756213,0.1335785389,0.0003556105,0.0826587602,-0.0267497879,0.0490658842,0.0088027418,-0.0548479035,0.0445300564,0.0115713123,-0.0129994107,0.0082610063,0.0507223271,-0.0549835078,-0.0240270924,-0.0222994145,0.0358530916,-0.0201875642,0.0951699018,0.0031356495,0.0902318209,-0.0288665779,0.0677102208,-0.0128701748,-0.0271317065,-0.0248123500,-0.0376244150,-0.0135017661,0.1310103685,-0.1312157214,0.0756284669,0.0282988474,0.1352374107,-0.0341503285,0.0032527475,0.0702997372,0.0021790415,0.0540348887,-0.0100568132,-0.0139769241,0.0273372885,0.0705000535,-0.1435514987,0.0812615007,-0.0812552199,-0.2381251454,-0.0978747159,-0.2047230452,-0.1137297079,0.2984894812,0.3455803990,0.0291405693,0.2969959378,0.1143458039,-0.2924388945,-0.2932994068,0.2831980288,-0.1646608710,-0.2332856655,-0.2301185876,0.1915372908,-0.6730644703,0.1145142242,0.2661627531,0.2746748924,0.2447230220,-0.2180269659,0.0814080760,-0.0265711918,-0.2031551898,-0.2140641212,0.0107902540,-0.0483941846,-0.2490162849,-0.2809816301,-0.3139431477,-0.3237988949,-0.0260063186,0.1171617582,0.3188904822,-0.2212953568,-0.0733922720,0.0891199559,-0.2769378126,-0.2891882956,0.3128288984,0.1016964093,0.2617109120,0.3513809443,-0.2224061191,0.3562929332,0.0243398137,-0.2528639138,0.1567744166,-0.2102384865,0.1493732780,-0.3491891623,0.3411906362,-0.2723272443,-0.2816122472,-0.0892285928,-0.0933122486,0.1422918886,0.2972469926,0.2409889698,0.0821352378,0.3241318166,-0.1447388828,-0.1013931334,0.1744184643,0.0042567099,0.0338475741,-0.0715059713,-0.0427375697,-0.1302677989,-0.1026603132,-0.0565977655,-0.0303013511,0.1107958853,-0.0735532567,0.0250271652,0.1187971830,0.0529479757,0.0217176229,0.0152345691,0.4484598041,-0.0071747499,0.0351107866,-0.1126956120,0.1431778222,0.0633593053,-0.0802724883,0.1235686466,0.0921075866,0.0789102614,-0.2204909027,-0.0536285341,0.1697061062,-0.0479215570,0.0161448177,0.0562698655,-0.0426338986,0.0675539821,-0.1366534531,0.1746490002,-0.0715503022,0.1138162464,0.0450432897,0.0437897444,-0.0437074415,-0.1376485825,-0.0761209875,-0.0674808547,0.1704883873,0.0757642910,-0.0110840593,0.1614691615,-0.1333731115,-0.0425315015,0.0859671757,0.0953516439,-0.0672620609,0.0389819555,0.1699536294,0.1106081009,-0.0834653229,0.1073171124,-0.0175710116,-0.0955806673,0.0470268764,-0.2672775090,-0.1641834974,-0.0270651206,0.3295884430,0.0791087523,0.0226544924,-0.1338379979,-0.1850374937,-0.0659378096,-0.0022892419,-0.1850209832,0.0910997391,0.1352763027,-0.0457720533,-0.0757159889,0.1015348360,0.2150628716,-0.0477044061,0.0923112109,0.1565157622,0.0282068718,-0.0691635758,0.0095314393,0.0109289968,0.1530716568,-0.1402192414,0.2334610671,0.0956244469,0.2207331508,-0.0691070482,-0.1561818272,0.2770209014,-0.0894423276,0.1071225777,-0.0140856840,-0.0825401470,0.0894429982,0.0486101098,0.1931886971,-0.0853951424,0.0512389578,0.0894521847,0.0067760604,-0.1654088944,-0.3480351567,0.0046596029,-0.1702342778,0.2474803627,-0.1472007632,0.1051774099,0.0065137604,0.0296328142,0.0744035020,0.0496974401,0.0830194429,0.0491138846,0.1453592777,0.1333286762,0.1553500891,-0.0927561298,0.0678263977,-0.1451558173,-0.1685580462,0.1059126109,0.0598119907,0.0393780842,-0.0919053331,-0.2870695293,-0.1078079864,0.0309751369,0.0778560713,-0.0434758440,-0.2803930640,-0.1692307144,0.0617763102,-0.0639217570,0.1291313171,-0.1400661469,-0.0151561350,0.0267555434,-0.0198968854,-0.0083021596,-0.0548647530,0.3090642989,-0.0043391073,0.0665530264,-0.3140431941,0.0520673953,-0.0419789515,-0.0311117060,-0.0835390911,0.0240279492,-0.1191567481,0.1506870985,0.1916678250,-0.2421997190,0.2581221163,-0.0905442238,0.2491098493,-0.0027143529,0.1447595656,-0.1170793250,-0.1528975368,-0.1152710244,-0.1334610730,0.1350976229,0.1359126568,0.0401398577,0.4771594703,-0.2052476704,0.0807680264,-0.1918727458,0.0875886455,0.1092599183,0.2253849059,-0.2722696960,0.3576401770,-0.1636788845,0.0249453019,-0.3758526742,0.0003840158,0.1320811808,-0.0300028082,-0.1571113914,-0.0685448647,-0.1343082041,0.0012964276,0.2864439487,-0.4113864303,-0.0249885377,0.0404523201,-0.0813609883,0.0028244071,-0.0289007723,0.1300785542,0.0767505988,-0.0575464144,0.0384773798,-0.0732930526,-0.0576703846,-0.1744983345,-0.0704318956,-0.0321264789,-0.0260948092,-0.0835357606,-0.0011189019,-0.0594086982,0.5455059409,-0.0061964933,0.0484383628,-0.0128704272,-0.0093267029,0.0386018641,0.1021794602,-0.0539351739,0.0122769717,0.0401185937,0.0412067287,0.1025804132,-0.0477348790,0.0073843249,-0.0490396395,-0.0101324348,-0.0939811990,-0.0506853834,0.1806537658,0.0138431266,0.0500789210,-0.1086985469,0.0306180827,0.1327557415,0.0136500830,0.1343357563,0.0443675630,0.0369832292,-0.0425289012,0.0393902101,-0.0863265395,0.1371809393,-0.0450924076,0.0431708507,-0.0457994640,-0.0993879288,0.1228784770,0.0412463360,0.2552166283,-0.0320137553,0.0787807852,-0.0374892652,0.0104933819,-0.0427098796,0.3237676620,-0.1585877687,-0.4249961078,0.2179143578,0.0097723687,0.2649450898,-0.0180599261,-0.1621087790,-0.0592462756,-0.1180221960,-0.2082860470,-0.1256019175,0.2293745726,-0.0546894893,0.1926666647,-0.3252741694,0.0438447706,0.0788092315,-0.1350699663,0.0673337057,0.2814251184,0.1990181059,-0.0478869341,0.0368918963,-0.0317596570,0.1844898611,-0.1471300870,0.1537094116,0.2040456682,0.1681259871,0.2230005711,-0.1773777902,0.2091461867,-0.1732431948,-0.1965655535,0.0203483533,-0.3716669083,0.1646912545,-0.1017840877,0.4046536386,-0.2556013763,-0.3002029061,0.0906803608,-0.0820973814,-0.1301805973,-0.0210446399,0.0940391347,-0.1134997606,0.1062722579,-0.0954802707,0.3179754019,0.1270532459,0.1000109315,0.1549976468,0.1420913041,-0.0778433084,0.0437982939,0.0751719773,0.2837515771,0.1887001693,-0.1937320083,0.2062860578,-0.0824494287,-0.3014287055,-0.0929847509,0.0481415130,0.0428473838,-0.1876493990,-0.0704262108,0.0154189011,-0.0118496623,0.1567249745,0.0493457355,0.1275048703,0.0832779408,0.1354558915,-0.2044743150,0.0652076304,-0.0666183978,-0.0337994136,-0.1434954107,-0.0495695770,0.0960092247,-0.0661012828,-0.0834557712,-0.0958040431,0.0976611674,-0.0841480792,-0.1775258183,-0.0984617099,0.2284311056,-0.1256170422,-0.2404720932,-0.0580270886,-0.1201835424,0.1214982346,-0.1197829470,-0.0167087615,0.0275189355,0.0161463600,0.0802745596,-0.0567158088,0.0177162588,0.0201437082,0.1619921327,0.0681422502,-0.0808163062,0.1611195058,0.1661285758,0.0894353390,-0.2444027215,0.0400098190,-0.2118989676,0.2397870421,-0.1935824305,-0.0242148023,-0.0663428381,0.0429622494,-0.1343884170,-0.0612568147,0.0958587825,-0.0938811675,0.0501972735,-0.1496309787,0.0070119533,-0.0949364007,0.1177829206,0.1002633795,0.0818075836,0.0162107330,-0.0150242206,-0.1214371175,-0.1965536773,-0.1036749482,-0.1024741605,-0.0448673442,0.1324256659,0.1296989471,0.0355047286,0.0883328840,-0.0797986686,0.0045789359,-0.0669520870,-0.0380873121,-0.0766471550,-0.1484912038,-0.0225880183,0.0458623283,-0.0399341471,0.0570911430,0.1642836928,0.0550243333,0.0146458605,-0.0532466844,0.1770807654,-0.1116422862,-0.1411236227,-0.0666567758,-0.0336047411,0.0249542631,-0.1499206126,-0.0356457867,0.0497025810,-0.0863796249,-0.0901603103,0.0141009642,0.1872609109,-0.0444702953,0.0513110980,0.0311374031,-0.0595660582,-0.0844140798,0.1501210779,0.1259349138,0.0188611504,0.1179893836,-0.1674091071,0.1619508117,-0.0847417712,-0.1892893761,0.0402198210,-0.0900509432,0.0267513059,0.1478356868,0.0299391020,-0.1716235131,-0.0758977458,-0.1010855138,-0.0227846168,0.0289824661,0.1262101829,0.0973258242,0.1455166340,0.0528291352,-0.0789810643,-0.0734924302,0.0980514735,0.0072467620,0.0773173049,-0.0072101690,-0.1013687551,-0.0576765053,-0.0993410349,-0.0034369817,-0.0856663585,0.0906153023,0.0243468415,-0.1753453910,0.0185001660,0.0644160658,0.0977794230,-0.0765571743,0.2051860243,0.0483388491,0.0172347222,-0.0582942255,0.0303108916,0.0977053717,0.1108465940,-0.0873751640,-0.0402371436,0.0878620073,-0.0359979682,0.0139849409,0.0394208394,0.0422048308,0.0397944190,0.0926095545,-0.0484433882,-0.0110822124,0.0739871264,0.1450692564,0.0689036250,-0.0065950453,0.0560134761,0.0580170490,-0.0736594498,-0.0248457212,-0.1002453044,-0.0628703982,0.0226216540,-0.0497871079,-0.0773269162,0.0357898325,-0.0381962210,-0.0612278022,-0.1135684624,0.1475483626,-0.1537877172,0.0708913282,0.0475484692,-0.0474048853,-0.0158016551,-0.0457495861,-0.0460779928,-0.0937418193,0.0017639642,0.0270207468,-0.0140035478,0.1095308363,0.0164338332,0.0830378830,0.0013885630,-0.0026804048,-0.0357083194,-0.2031214684,0.0136196315,-0.0910310373,0.0018168213,-0.1457162946,-0.0144263208,0.1117462069,0.0859448537,-0.0308082495,0.0414712913,-0.0330568030,0.3507020175,-0.0450056680,-0.0180634297,-0.0919196904,-0.0075692241,0.0743801743,-0.0299399644,0.1210297346,0.1482639462,0.0644205734,-0.0092048636,-0.0053421734,-0.0459251106,0.1794419289,-0.0937369764,0.1005600020,0.0508534722,0.0993502662,0.0927948952,-0.0337280631,-0.0718202293,-0.0770356134,0.0487227291,0.1207117662,-0.0387941189,0.0327560492,-0.0162513740,0.0399257578,0.0480920710,-0.0459565222,0.0183156561,0.2387192845,-0.1100823432,0.1858039200,-0.1243100166,-0.2987469137,-0.0625469759,0.0820584372,0.1951421052,0.0853494480,-0.0544704795,-0.0222508684,-0.1545851827,-0.0247056745,0.2326710522,-0.2335095108,-0.1918507516,-0.0366166309,0.0165433623,0.1202376783,-0.0086223762,-0.0090316255,-0.0311155077,-0.0490805805,-0.0938310996,-0.0882903934,-0.0785873532,0.0113804461,-0.0269795433,-0.1162788346,-0.0192417614,0.0401123352,0.0503868908,-0.0049838340,0.2973243594,0.0661656857,0.0568958893,-0.0815863386,-0.1401487142,0.0156863686,0.0920688361,-0.0746000633,0.0545783527,0.0740588009,0.0001517863,0.0629408881,0.0867584124,0.0158317983,-0.1508803368,0.0455901064,-0.1227412596,0.0419380143,-0.0433888435,0.1550308913,-0.0054253247,-0.0544227995,0.0233505331,0.1147507653,-0.0295093507,0.0855838954,-0.0744553357,-0.0247843508,-0.0219190754,0.0442460105,0.0542059094,0.1078343391,-0.0681240633,0.0975321606,-0.1240114644,-0.0579263642,0.0953262895,0.0059072454,0.2552997172,0.0125849824,-0.0806955174,0.0590089038,0.0122560812,-0.0774712116,0.0579647385,-0.0801770687,0.1250368953,-0.2359825373,0.1528887600,-0.1328975856,-0.0117533226,0.0510830246,-0.0255794041,-0.0103826988,-0.3244959712,0.1149919853,-0.1612456739,0.1496507227,-0.1237629801,-0.0006009509,-0.1035315394,-0.0433063321,0.0754214451,0.0197651032,0.5624519587,-0.0256293099,0.0570946261,0.0143719707,-0.2357425988,-0.0860130340,0.1665232927,-0.0757737309,-0.1487177908,-0.1336707026,-0.1447030008,0.1175571084,-0.0737844333,-0.0121274730,0.5047379732,0.0199310109,0.0636570826,-0.1247857660,-0.3163152337,-0.1018771082,0.2006516755,0.1631964445,-0.0358795151,0.1224780530,0.0036217638,-0.1593516469,-0.1178068444,0.0688495561,0.0092175389,0.0456905402,-0.1594629884,-0.0884957612,0.0440074354,-0.3518905342,0.0395892933,0.3393767476,-0.0347086377,-0.0083166268,0.0001707473,-0.1348876506,0.0713992640,-0.1021917909,-0.0263390299,0.0746219084,-0.1097240895,0.0171168447,0.0926614925,-0.0853519216,0.0341231488,-0.0548364855,0.1651601493,0.0905990824,-0.0547242574,-0.2666510046,0.0576314852,-0.0454171635,-0.1349177957,-0.0464801751,0.0266210251,-0.0025699125,0.1236132756,0.0084825810,0.1425456405,-0.1688787490,0.4529356360,-0.1445781589,-0.0374314375,-0.2026337683,0.1219141483,0.0859216228,0.1892927140,-0.1536811888,-0.1370545328,0.0041111102,-0.1121469811,0.1646831781,-0.0389602594,0.1411982477,-0.0283487216,0.1944790184,0.0609314851,-0.1188266352,0.2956734002,-0.1329095066,0.1461545974,-0.0517540239,0.2005052119,0.1918345094,-0.0865676552,0.1051940396,-0.1052802727,-0.0911429003,-0.0180401206,-0.0099703893,-0.0891741067,0.2505916357,-0.1650929153,0.1018729135,-0.1079924852,0.1504954994,-0.1213188916,0.0884523690,0.1064583883,-0.0551307686,0.1998334229,-0.1688535511,-0.1055828780,0.0048913178,0.3561132252,-0.3896404803,-0.4338051081,0.1276383102,0.4214492142,0.3387017250,-0.0421212390,-0.3029339015,-0.2551417053,-0.1770751327,0.0817210376,-0.2660416067,0.3039271832,-0.1205468774,-0.1937707067,-0.3166112006,0.1515361667,0.2566330135,-0.1318378001,0.2877081931,0.4428530335,0.2249014974,-0.0034322306,0.1165798679,-0.3481772542,0.2686117291,-0.3506228328,0.4004421830,0.2659281492,0.3491948247,0.0244047809,-0.3548258543,0.4000116885,-0.3181964755,0.2929309905,-0.0723626986,-0.2962873280,0.2353465706,-0.0790623128,0.3892100453,-0.2789755464,-0.1879995018,0.0273529477,-0.0970114246,-0.2579053938,-0.5568898320,0.1737293154,-0.0859449729,0.4649131596,-0.1785322875,0.2553851604,0.1548178047,0.2359948754,0.0942760706,0.2563997507,-0.0731859207,0.1538818032,0.1938580722,0.3171909750,0.3471444547,-0.2820156217,0.3246907294,-0.3291107714,-0.4457103610,-0.2580488622,0.0225939415,0.1973556578,-0.3236783147,0.2643474340,-0.0712032765,0.1627750248,0.2736387551,-0.0009396795,-0.0951167941,0.1896577775,0.1351962090,-0.2573718131,0.0730022192,-0.0805548653,0.3024063706,0.0379353166,-0.0269772317,0.2373281270,-0.1400670558,0.0586660057,-0.2729592025,-0.0658594668,-0.1727364510,-0.0099056074,-0.2256137580,0.2497984469,-0.1646770537,-0.2786130905,-0.0245919842,-0.4309356809,0.2467199564,-0.0689252764,-0.2391409427,-0.0044162259,0.0233903695,0.2731195986,-0.3408260047,-0.0204116292,-0.1990175545,0.3246936500,0.1918529570,0.0717895925,0.3007654846,0.0037572638,-0.2855979204,-0.2435404062,-0.0465816967,-0.0046746037,0.0335835963,-0.4005389810,0.1222551391,-0.1131983101,-0.2401299328,-0.0708794966,-0.1154038683,0.2479892373,0.1108502820,-0.1039134786,-0.1895539016,0.3051549494,-0.2665450275,-0.0461587012,0.1529832184,0.1045955047,-0.1850147545,-0.0578850582,-0.0867851600,0.0857377648,0.0001861412,-0.0356574804,-0.0731146783,0.1002500057,0.0878954157,-0.1406479627,0.0759978667,0.0300088748,0.0293192919,-0.1915696412,0.0930794254,-0.0556249693,-0.0602817722,-0.0292308759,0.1578513980,0.1441563666,0.0254970435,0.0898279026,0.1139525622,0.3254859746,-0.1257409155,0.0218702331,0.0711912215,-0.1278991252,0.0033264000,-0.1042834222,-0.0506835692,-0.0187487900,-0.1953212172,-0.0898900926,-0.1505367458,0.0256077722,0.0632247999,0.0075100660,-0.0393639728,-0.0078810807,0.0733189285,-0.1101417094,-0.1241904497,0.0586703382,-0.1151561812,0.0037628273,0.1084018499,-0.0157696046,0.1071517020,-0.0578256026,-0.0557859354,0.0987130180,-0.1172809601,0.1112540439,0.1281386912,0.2002552003,-0.0877026841,-0.0072170594,-0.0059719388,-0.0285152663,0.0329054929,0.0843444988,0.0649727657,0.3022566736,0.0187703166,-0.3101126850,0.1264839768,0.3635949194,0.2572222054,0.1759356409,-0.0240364447,-0.2525337934,-0.2541469038,0.2576722801,-0.1846489757,0.0644043982,-0.1218356043,0.0428184569,-0.1030814126,0.2030758560,0.2420775592,0.0805669352,-0.0093831001,0.4644965231,-0.0833414719,-0.1730198264,-0.0506633408,-0.1926476955,0.2442650199,-0.1360386610,0.1811850369,0.1750507355,0.2308997065,-0.2785781920,-0.0963564515,0.3238763213,-0.2050041258,0.1097750440,0.1283462644,-0.1985969990,-0.0434624031,0.0780168697,0.3011676669,0.0322649777,-0.2266807556,0.1804102361,0.0791736394,-0.3190532923,-0.4204358160,0.0197745226,-0.2128024250,0.4121337235,-0.2197662294,-0.0911667496,0.2674857378,-0.0011794872,0.0369988680,0.0454806425,-0.0107637234,0.0673763901,0.2732539773,0.3748902380,0.2012443542,0.0453230403,0.0644696429,-0.2626314759,-0.2808235586,0.0885507762,-0.2842549980,-0.2447205037,-0.0031404281,0.0566176288,-0.0318018906,-0.0723677650,-0.2279474288,0.0897110626,0.0701706409,0.0729938298,0.0401814729,0.1078979969,0.1169665083,-0.2624132633,-0.1196989492,-0.0801490024,0.0034428393,-0.0905794203,0.2331840396,0.2433446646,0.1195206046,0.1189304963,0.0805187672,-0.0222585425,-0.0516980067,-0.1425249577,0.2672187984,0.0362133570,0.0387208872,-0.0361292250,-0.2169267386,0.0397779234,-0.2351815552,0.1996389776,-0.1277900636,-0.1745275706,0.1508959830,-0.1108465493,0.1383982301,-0.1843277216,0.0753009990,-0.0660823509,-0.0826747268,0.1023597643,-0.1185542569,0.0195709541,0.0896696225,0.0275729392,0.0936378837,0.1013195738,-0.0214308649,0.1234253198,-0.0392772742,0.2057999969,0.0989234447,0.2163224220,-0.0684174523,0.1080510244,0.1295482963,-0.1891862899,0.1739260852,0.0088736005,-0.1225859746,0.0825291425,0.0478632972,0.0877182111,-0.1154523715,-0.1378929466,-0.2468485087,-0.0749502629,0.0433614738,0.1982645988,0.0631158650,-0.1005151793,0.1422725022,-0.0647825375,0.1108030230,-0.0192659665,0.0219379272,-0.2343426794,-0.2049152851,-0.0156147154,0.0580479838,0.3405510187,0.0363772772,0.1377138644,0.0605622679,-0.0029454832,-0.1327520460,-0.0051452718,-0.0305014271,-0.0506874174,-0.1554968506,0.1332925856,0.0539354645,-0.1715453714,0.0754565150,0.5879116654,-0.0858840197,0.1019368172,0.0184852462,-0.1267567426,-0.1087050065,0.0073940321,0.2937535048,-0.1163146794,0.0360072218,0.1951289326,0.0527472608,0.0015215280,0.2004217952,-0.1307231933,0.2205127180,0.0226245951,-0.0387214273,0.1146021038,-0.3577927947,0.0382443592,0.0768186897,-0.0300548151,-0.1127026752,-0.2140828073,-0.1245473027,-0.0362159237,0.0364457481,0.0951708779,0.0345236994,-0.3795099854,-0.0070476597,-0.2791575193,0.0297822487,0.1393777877,0.1192372292,-0.0908873752,-0.2779214382,-0.0023520654,0.0710435510,-0.2572084069,-0.0336522534,0.1779363155,0.1410476565,-0.3005810380,-0.1191983595,-0.0388551168,0.0792198777,-0.1418737471,0.2690562904,0.3340998590,0.2215888649,0.0688316450,0.1408438087,0.0058024265,0.0126457289,-0.1527387649,0.2813624144,0.0892124027,0.0891015902,0.0332858227,-0.2269889265,0.1392666847,-0.3001143932,-0.0828483626,-0.1754745394,-0.1417643279,0.2656866014,-0.2191340923,0.1684806347,-0.1910938472,-0.0455377102,-0.0824576169,-0.2237774879,-0.0361078046,-0.1678310782,0.1124733239,0.0350116119,0.1386372447,0.0069223978,0.1423082352,-0.0330426991,0.1400955170,0.1478702426,0.1855438352,0.2613185048,0.2678352892,-0.0293498766,0.1927571595,0.1511438936,-0.2268906832,0.2075723559,-0.0186288655,-0.1868067980,0.1853213608,0.1044735014,-0.1033564061,-0.1872592270,0.2405512780,0.2799186409,0.2675530612,0.0571577325,-0.2453888059,-0.1891408265,0.0442554653,-0.1679379791,-0.1227340400,0.2888416052,-0.6679998040,0.0079647060,0.2164493352,0.2334492803,0.2551450431,-0.1097292602,0.1177662238,-0.2498414516,-0.2496520728,-0.2037078589,-0.4130736887,0.0506522469,0.0889905617,0.0827517062,-0.0733909160,0.2990580499,-0.3265836835,0.0440405570,0.1966435760,-0.1519826800,-0.6310915351,0.1548788100,0.1376087815,-0.2010439038,-0.1843673736,0.1588980854,0.1461186558,-0.1175993681,0.2148406506,0.1942467391,-0.1977521777,-0.2807837725,-0.2324335277,-0.2618545890,0.1162219420,-0.1814891994,-0.2913509607,0.2169996500,-0.2006902844,0.3606564105,-0.1012011170,0.1317202598,0.1164703220,0.1924696863,0.2020014226,-0.0243946295,0.1603711843,-0.1057371497,-0.2131323963,-0.1281787753,-0.0394839421,-0.2243196517,-0.0219318848,-0.0213577542,-0.1119636074,0.1165356189,-0.0325390697,0.0981706828,0.0297049973,-0.0073393779,0.1198963225,-0.0463131741,-0.0766511783,-0.1197214574,0.0520729385,-0.1437047571,-0.0110399714,-0.0180298816,0.0155298682,-0.0070871166,1.1158974171,0.0040679560,0.0248454083,-0.0329592153,-0.1824319810,0.0254983418,0.1522431970,-0.2188236564,0.0293516852,-0.0125970235,0.0415727869,0.0874564275,-0.0504923277,0.0098085376,0.1241751313,0.0142320190,-0.1064287722,-0.0673867613,0.0004244642,0.0358412564,0.0912781805,-0.1793919951,0.0041943463,0.0982166082,-0.0236948412,0.2765838504,-0.0144340061,-0.0081330240,-0.0525962152,0.0340107828,-0.0704257637,0.0772658363,0.0075402865,0.0121050840,0.0162110254,0.2124550343,-0.0165335890,0.0125900600,0.3359534442,-0.0890728906,0.1008276492,-0.0164391752,-0.0579989329,-0.0527595468,0.1545168608,-0.0350307822,-0.0760316774,-0.0077080289,0.2520042956,0.0498206392,0.0735847875,-0.0470276698,-0.1550289989,-0.0881650746,-0.2089174837,-0.0329630896,0.0376317762,0.0712070689,-0.1316830665,-0.0222734716,0.0798800364,0.1625279188,0.0168292206,0.0555276722,0.3626835346,-0.0020019847,-0.1058165357,-0.0156562477,0.1953582317,0.0620821305,-0.0689405277,0.1580695808,0.0520623922,0.0947976783,-0.1019108817,-0.0661087111,0.1072157249,-0.1439998001,-0.0624753609,0.0090924986,0.0282493401,0.0172859114,-0.2192453593,0.0308594238,-0.0123899421,-0.0293171052,0.0875725672,-0.0459290408,-0.1566759795,-0.2040840983,-0.0152796451,-0.1297191232,0.1704200655,-0.1130109057,-0.0912092179,0.0945650116,-0.0183141399,-0.0232280977,0.0156902112,0.0962475464,0.0917222947,0.1296192408,0.1413987726,0.0621330775,-0.0223422293,0.0301610567,-0.1436399519,-0.1098457277,0.3496972620,-0.0782734752,0.1118438318,-0.1739996672,-0.0358088650,-0.1695075482,0.0648640320,0.1917339265,0.0822777450,-0.0942673311,0.2989525795,0.1075797975,-0.2214408964,0.0755121782,-0.0261358172,0.0636404753,-0.0689315125,-0.1038205624,0.1413730383,-0.0680715814,0.3662421107,-0.1250811368,0.0349796861,-0.0935130268,-0.0788350999,-0.1608784795,0.1616859287,-0.1712288707,-0.1883274764,-0.0350882784,-0.1108988598,0.1993839890,-0.1155059487,0.0670965314,0.4764771163,0.0335061327,0.1433927566,-0.1268626899,-0.0020219451,-0.1422065198,0.1497035474,0.2669638693,0.0159317702,0.2440667599,0.1084728017,-0.0239319801,-0.1519090086,0.1107319966,-0.1188445613,0.1577005982,-0.1528128535,0.1473872811,-0.0398656167,-0.2373664230,-0.0778063759,-0.0562308766,-0.0185765699,0.0240185428,-0.1321634203,-0.2025892138,0.1598709822,-0.1113697812,-0.0286501348,0.0547785014,-0.1283064634,-0.1988792419,0.0729318038,0.0456966013,-0.1982247233,0.0978915393,-0.0774249807,-0.0061796745,0.0787669867,0.1076982617,0.6924256086,-0.0372396037,0.0012092988,-0.4509298205,-0.1090559885,0.1460432410,-0.0685121119,-0.1230535358,-0.0617148392,0.0549422875,0.6411728263,0.0518398657,0.0997021943,0.1034103781,-0.6330637932,-0.0782336742,0.1116056964,-0.1106801182,-0.1533550471,0.0165308658,-0.0593601502,0.0315003805,-0.1847818792,-0.0212612618,0.0143495593,-0.1405485421,-0.0346893184,0.0424219668,0.5742709637,-0.1423928887,0.0381665602,-0.1553227901,-0.1197615117,-0.0973711386,0.0690007061,0.1928602010,0.0540924333,0.0864221305,-0.1567487568,0.0513440482,-0.0746839643,-0.0436537936,0.1314821392,-0.0968440548,0.0831847265,-0.6611797214,0.1068253592,-0.1592484117,0.1063751578,-0.0835910589,0.0227194652,-0.0196546372,0.1114555225,0.1034936458,0.0879430920,0.0823998824,0.0354764126,-0.0609927885,0.0206388310,0.0220714919,0.0272671953,0.0466102883,-0.0903812796,-0.1981230974,0.1433792412,-0.0404379256,-0.0768720731,-0.1620057970,-0.1571689248,0.0766910091,0.1157588437,0.0404522941,0.0882483870,-0.0211857874,0.7332810163,0.0267089531,-0.0250996444,-0.1820144355,-0.1110384539,0.0939495936,0.1216444075,-0.1478728056,0.0109133217,-0.0194974095,-0.0375485085,0.0920410827,-0.0241104644,0.0230216589,0.2701222599,0.1339962631,0.0790000334,0.0093232002,0.1481794566,0.0003914497,0.0787800029,-0.0257031620,0.0915961117,0.1088609993,-0.0847584084,0.2150952071,-0.1154049709,0.0026734110,0.0209618919,0.0200180132,-0.0144523289,0.2581035197,-0.0570369475,0.1157625243,-0.0355888978,0.0217959005,-0.0525411516,0.0846940503,0.2743741274,-0.0579741932,0.0388275236,-0.1009439006,-0.1182416901,-0.0482238643,0.1518310159,-0.1989160329,-0.3839052022,0.0499134138,0.5085441470,0.3470043242,0.0721642375,-0.1957028210,-0.2907594442,-0.1713563353,0.3720603883,-0.2401051819,0.1723663658,-0.1646263599,-0.0461860634,-0.2025526762,0.2040696740,0.2825162411,-0.0163392592,0.2106860280,0.1258625686,0.0694750473,-0.1068767831,-0.0007627083,-0.5757144094,0.2476130128,-0.2020163089,0.3241422772,0.1298675686,0.3516286314,-0.2829318047,-0.2318999916,0.4075255096,-0.4813808501,0.1112404168,-0.0586267747,-0.1934902668,0.0743358061,0.1267460585,0.3767307103,-0.0963150933,-0.1899199039,0.0933231562,0.0068174512,-0.2905746996,-0.6108963490,0.0023254622,-0.1742542237,0.4236932993,-0.1695262194,0.0466488600,0.1297083497,0.1223938838,0.0848828927,0.1744181961,-0.2735255361,0.2155406773,0.2842268646,0.3483236134,0.2717708945,-0.1191345081,0.1692985147,-0.2477054596,-0.3503858745,-0.2360292971,0.0164323468,-0.0932283029,-0.0591140054,0.1679566503,0.1300655901,0.1867984235,-0.0099036312,-0.1652435362,-0.0747934654,-0.0361629501,-0.0585504510,-0.0295895897,0.1365419179,-0.6220377684,0.0447636172,0.0709534734,0.1665882617,0.1661583930,-0.0540484115,0.1282382607,-0.1766239852,-0.1735333353,-0.0886612758,-0.0358204916,0.0022727200,0.0176419821,0.1321684569,-0.0373284183,0.1485979855,-0.1814096570,-0.0060889730,0.1064059660,-0.2109712958,-0.4218643308,0.0524408035,0.0195478033,-0.0685984492,-0.0518165901,0.1087699682,0.0330267511,-0.0589430295,0.1295626909,0.0527590774,-0.1369865984,-0.1687675416,-0.1632486135,-0.1547427028,0.0782180727,-0.1191975102,-0.1496548802,0.1163884550,-0.1360235214,0.2404750288,-0.0741616189,0.0954199433,0.2080026418,0.1399274468,0.1215736046,0.0186356027,0.0616967641,-0.0295130629,-0.1370394081,-0.0773592442,0.3560548425,-0.1445702463,-0.1851090342,0.0153733054,0.0496484898,0.0529462509,-0.0782868788,-0.2296210080,0.0576282330,0.1182168350,-0.0858602449,0.0033372398,0.1313950568,0.0662126467,-0.2881573439,-0.0704395846,-0.0742367506,-0.0342516489,-0.1257120222,0.2133733481,0.1302640587,0.1307118088,0.0871656090,0.1669659615,0.1507848799,-0.0210316963,-0.1144447029,0.2492127568,0.0155217126,0.0577364005,0.0183505397,-0.1679698974,0.0405496396,-0.1847655326,-0.1015330181,-0.1902083755,-0.0865304917,0.1876643896,-0.0468749776,0.1083024666,-0.1475718617,-0.0094775865,-0.0868440568,-0.1995357126,0.0081315795,-0.0831857249,0.0822594985,0.0858686939,0.0229206067,0.0525885634,0.0536223613,-0.0626772344,0.1324082613,-0.0074718357,0.1473018676,0.1091879085,0.1962001920,-0.0894636139,0.0860792771,0.1217818484,-0.1833303273,0.1576716751,0.0223832317,-0.1032440737,0.2875589132,0.0808004811,-0.0252488405,-0.0743518844,0.0242617931,-0.0894301161,0.0628996640,0.0587024651,0.0041123456,-0.1438288242,0.2154154032,0.0458630882,-0.1367215812,0.0982172564,-0.2989319265,-0.0648887679,-0.0299169365,0.0334843136,0.0798255131,-0.0097851790,0.2766558230,-0.0694677904,0.0073230108,-0.0784131214,-0.2377498895,-0.0847495869,-0.0166195668,-0.0081534479,-0.0539212413,0.0234022774,-0.0541941375,0.0567238852,-0.0160458479,0.0748758987,0.3242655396,0.0606777258,0.0134656308,-0.0866168663,-0.0772568211,0.0221433472,-0.0019270321,0.2023643404,0.0302780010,0.1752824932,0.0310533065,-0.0414734185,-0.1386914104,0.0316491909,-0.0439392440,0.0768850297,-0.0393650196,0.2008822858,0.0040322635,-0.0584903173,0.0158263240,0.0481451191,-0.0059754653,0.0793076828,0.0040588561,-0.0574554354,0.0382047668,0.0092959283,-0.0716530830,-0.0540939309,-0.2245580703,-0.2031753808,-0.2213628888,0.0861044973,-0.0713861510,-0.1120140329,-0.1503450572,-0.1880736202,0.0300624017,-0.0383521728,-0.1647267044,0.0290771239,0.1926944554,0.1728272587,-0.1977468282,-0.2125471383,-0.0973583683,-0.0902091637,-0.1763235480,0.1624341458,0.3631073236,0.2512180805,0.1626669317,0.0665646419,-0.0507927202,0.0125590004,-0.2845612168,0.2094132602,0.1883492172,-0.0247171205,0.2952441275,-0.2236143649,-0.0000464133,0.0348089188,0.5106368661,-0.1111112982,-0.1445414126,0.2355478257,-0.1657785326,0.1026114300,-0.2289033681,0.0529885292,-0.0658673346,-0.0816167444,0.0906347856,0.0145018967,0.1307411641,0.1620906442,0.0601049438,0.0763143301,0.2742731571,0.0217012502,0.1470867991,-0.1002336666,0.1490876377,0.1478372812,-0.0059873657,-0.1088083312,0.0382674634,0.1716171354,-0.2535037696,0.2619044781,-0.0195508916,-0.1694773436,-0.2906539738,0.0119135361,-0.3242349327,0.3240467608,0.0980371684,0.2551451921,0.2835257351,0.0753213540,-0.4744634032,-0.4760275185,-0.2947349250,-0.5868061185,0.1588767022,-0.0064710877,0.3911449611,-0.8175152540,0.3635729849,0.5544764996,-0.0116634481,-0.4454676807,1.6928323507,-0.0604063384,-0.5811666846,-0.3489544392,-0.0679519325,0.7452459335,-0.4351947904,0.2190378010,0.7255264521,0.3634243309,0.7485544086,-0.1735327244,0.3385851383,1.2407832146,0.3268570900,0.7864959836,-0.2685689032,0.0986347720,-0.2377716005,0.5418922305,-0.1897442192,-0.1620954573,0.5878451467,0.2591264546,-0.5215812922,0.3499166965,0.0513243154,-0.5947918892,0.4245441258,-0.5497823358,0.4853369594,0.3643928170,-0.2857781649,-0.2936245203,-0.4047858715,0.0487675555,-1.2740020752,0.4630317092,0.5246072412,0.2864663005,-0.0241158176,0.1829839051,-0.5983878374,-0.6033717990,-0.2038414031,-0.4389064908,-0.1950488985,0.0054983832,-0.0339443386,-0.1364931464,-0.1675253212,-0.1588004977,0.1296275854,0.0771531984,0.0660014525,0.0802534074,0.0984482691,0.0675781220,-0.2081573606,-0.1161510274,-0.1783744991,-0.1268174499,-0.1326863170,0.2182872444,0.2854449451,0.1823378503,0.2313560694,0.1839154065,-0.3034777343,-0.0758042261,-0.1895620525,0.1666578203,0.0470607467,-0.0555502214,0.1049349010,-0.1779635698,0.0055991868,-0.1342299432,0.5893056989,-0.2243267298,-0.1185774729,0.1672062129,-0.1009548157,0.1405385733,-0.1886579990,0.1534687877,-0.1500949711,-0.1111068502,0.1741954386,-0.0709514916,0.0988849327,0.2163303643,0.0699057356,0.1911278814,0.1740825027,-0.0225200821,0.2177241147,-0.1486879438,0.2595006227,0.0549508557,0.1814696044,-0.1714063585,0.0262116361,0.1312229484,-0.2076838166,0.2220411450,0.0860533863,-0.1443636864,-0.4773313999,0.0446892455,-0.1815231442,0.0555922277,-0.0095347343,-0.0477060154,-0.1816616058,-0.2732274830,0.1239228696,0.1628942341,-0.1720110923,0.0505029447,0.1959707886,0.1230516806,-0.2473084927,-0.1341853887,-0.1602969319,-0.0224131476,-0.2114249468,0.2418987602,0.0833631307,0.2083310932,0.1298986971,0.1980841011,0.3524547815,-0.0430228040,-0.2030015290,0.2512827814,0.1036386639,-0.0430189334,0.1787081957,-0.2148228586,0.0155596463,-0.0933659151,0.1764584184,-0.1819271445,-0.1547209322,0.2525983155,-0.2124317139,0.1227080449,-0.2519474030,0.0038782700,-0.1142321825,-0.2147712559,0.1035751924,-0.0005695350,0.1360780150,0.1498566121,0.0246750750,0.0905531496,0.2224255353,-0.1481162161,0.1623449922,-0.0767966360,0.1910711825,0.1995799243,0.1248952597,-0.1645418406,0.1034648344,0.1672176123,-0.2727217376,0.2330586761,0.0460900031,-0.1203046814,0.2184911668,0.1452765465,-0.0309720952,-0.0371515080,0.0907135233,0.0257202219,0.1336010695,-0.0175096355,-0.0688698888,-0.0910348222,0.1822189242,-0.0301864296,-0.0733336583,0.1506632715,-0.4806585312,-0.0979616866,0.0661510751,0.1092492491,0.0883607790,0.0060335039,0.5713431835,-0.0929286852,-0.1141076833,-0.1003233343,-0.4603159428,-0.0309525989,-0.0162345134,0.0765960440,-0.0081485426,0.1335950047,-0.0887241140,-0.0334588923,0.0632289574,0.0291595291,0.1653754562,0.0457770266,0.0209484510,-0.0789950490,-0.1209466085,0.0861493424,0.0217576213,0.1279541701,0.0988226905,0.0891541988,-0.0588880368,-0.0993787348,-0.1334650517,-0.1063878089,0.0202780534,-0.0064569423,-0.0485924594,0.1123521775,-0.0575873516,-0.0566680096,0.0044337460,0.3002102077,0.0602562428,0.0624759123,0.1465580016,-0.0141057381,0.0301779173,-0.0317982882,-0.0803671479,-0.0637144819,-0.2532340288,-0.1252564937,0.0628577173,0.0405200534,-0.1436817795,-0.0848862678,-0.0363820717,-0.0848697871,0.1449277103,0.0124332039,-0.0522707105,0.1560878158,0.1149318367,-0.4047071040,0.1837854683,0.1059318110,-0.0638500080,-0.1114738062,0.0060852719,0.0741263628,-0.2263209820,0.0690682754,0.0868870690,0.1196108907,-0.1052070484,-0.0624283031,-0.0930370167,0.0522249043,0.0177557338,-0.0963931158,0.0251887012,-0.0887200907,-0.1420913339,0.0585265495,-0.1900005192,-0.1053045020,0.0146032311,0.0222656429,0.3828228712,-0.1752692610,-0.0649649724,0.1476623118,-0.0601310246,-0.1347487867,0.1782903224,0.1336585432,0.0328978859,0.1096125618,-0.1348445565,0.1524701715,0.0665044561,0.0678156465,0.1520919651,-0.2969580293,0.0848228633,-0.1462329328,-0.0272512771,-0.1245572343,-0.1027222872,-0.0318061262,-0.1078836545,0.0916650370,0.1546674669,0.1082585007,-0.3991096020,0.0123676257,-0.0836037770,-0.2401558608,0.2459374219,0.2064209729,0.0781553313,0.0284060445,-0.0939655825,-0.0884040892,-0.0906615630,-0.0337877236,-0.0117021948,0.1724082083,-0.1978694201,0.0486994386,0.1120892987,0.0901797116,0.1041412950,0.0039061522,0.0553569160,-0.1106105074,-0.0666245222,-0.0650786012,-0.1803020388,-0.0362441763,0.0799207315,0.0676617995,-0.1241695732,0.1492458433,-0.2969051600,-0.0074756811,0.0788009465,-0.2792966366,-0.2000889778,-0.0275888182,0.0924030319,-0.1325866878,-0.1621037722,0.1071050540,0.1203779727,-0.0079340031,0.0548189320,0.0857460722,-0.0972128585,-0.3131224513,-0.0900359675,-0.0689623132,0.1070425957,-0.0517917238,-0.2306690365,0.1228374839,-0.0530618653,0.0250913370,-0.0034642441,0.0983980969,0.2277559638,0.0855162218,0.0832985640,-0.0134410886,0.0735381097,-0.0275852848,-0.0921365991,-0.0486485213,-0.0719830841,-0.1161715016,0.3265413642,-0.3951019645,-0.0674380958,-0.2718699276,0.0254923031,0.3086905181,0.2357875854,0.0748626217,-0.1333747208,0.3530113995,-0.3365887105,0.2862224579,-0.1892762780,0.3339538872,-0.2068740726,-0.2185787261,0.1760472655,-0.1391721666,-0.1574488431,-0.1912026107,0.1269772202,-0.0697682723,0.5823087692,-0.3935540617,0.3082751632,-0.2942937613,-0.4051222503,-0.1870887578,-0.2181662470,0.3608269393,-0.2905154824,-0.1200129762,0.4314117134,-0.0692864358,0.3551036119,-0.2944094539,-0.2977607846,-0.3407828510,0.3614374399,0.4079881608,-0.0866602808,0.2679844797,0.2850826979,-0.0065517705,-0.2590869665,0.2215742618,-0.2469746023,0.2736005783,-0.3103959262,-0.0224782936,-0.0861950591,-0.3785864413,-0.0892742574,0.2204423994,0.2104326040,-0.1226285249,-0.3791744411,-0.4074114859,0.2365797460,-0.2590155303,0.1676687300,0.2980788648,0.1348894686,-0.1082026958,0.2153334916,-0.2470332682,-0.2003486305,-0.3108797073,-0.0224286765,0.2159620076,0.1792539060,0.0648984313,-0.2226200700,0.2558766901,-0.2324226052,0.2460983545,-0.1493233740,0.1225693896,-0.2014013082,-0.2306803912,0.0952438265,-0.1394540071,0.0085679535,-0.0753471255,0.0732612610,-0.0153477006,0.5630684495,-0.2287044674,0.1487507820,-0.2091176659,-0.1852968633,-0.2208360583,0.0560139529,0.2269944400,-0.2807370424,0.0874308273,0.4391354024,0.0214025769,0.2588821948,-0.1419809461,-0.2991604805,-0.2504461408,0.1733809859,0.3518998027,-0.0657691360,0.1553203762,0.1841519922,0.1152811721,-0.1536308974,0.1827050894,-0.2330998033,0.1634757966,-0.1145201847,-0.0171351582,-0.0764421001,-0.3504530489,-0.1190540642,0.2411739826,-0.0142124789,-0.1108215675,-0.3618138731,-0.2770190537,0.0711092800,-0.1301563680,0.0870539024,0.1740487069,0.0614226758,-0.1117970198,0.1814378500,-0.3399529159,0.2367810905,-0.0660170540,0.2088587582,0.3336499929,0.0126076601,-0.1248732656,0.0811330527,0.1709433645,-0.3273483515,0.1678881496,-0.2311787754,0.2974978089,-0.0090878196,0.0064988420,0.3250083327,-0.2028069943,-0.2137255818,-0.3140185177,-0.0430235565,-0.1849122047,0.3610190153,-0.2876031399,0.3239825070,-0.2708072066,-0.3673778176,-0.0094850138,-0.4894738495,0.3152671158,-0.0437718108,-0.3155609071,0.3183166683,0.0495361015,0.3069746792,-0.3887888491,-0.1244602576,-0.1730276942,0.3826363385,0.2365011126,0.0631580204,0.3939307332,0.0567234010,-0.2998024821,-0.3920976818,-0.0034404909,-0.0198482126,0.1057576165,-0.4204212427,0.1816888303,-0.1632911265,-0.2103634328,-0.1252282560,0.0720562339,0.2702342570,0.1209460273,-0.1315605044,-0.3176085651,0.3500168920,-0.3196276426,0.0002799617,0.1654591709,0.1957101822,-0.2209500819,-0.2593945861,0.0511274226,0.2748456299,0.1661680490,-0.0202834234,-0.2776184976,-0.1194934249,0.0009644472,-0.0869301483,-0.0777833760,0.2012237608,0.0181755852,-0.4850313067,-0.0896172151,0.0902032107,0.1586844921,-0.1322079152,0.2658280432,0.0539976209,0.1649877876,-0.0084176669,0.0929949582,0.1010170653,0.1186249331,-0.2356568575,0.3479897678,0.1602517962,0.1076922417,-0.0028215912,-0.2688871920,0.2371324599,-0.3614807725,-0.1781929731,-0.1241680011,-0.1750431955,0.2382758707,-0.1826088279,0.2263453305,-0.2465446293,-0.1597607136,0.0169109516,-0.1956313848,-0.1642172039,-0.2514278889,0.1494219154,-0.0490201563,0.2385879159,-0.1186935753,0.1230820939,0.0245845225,0.1092363894,0.2368288487,0.1767895967,0.0807566643,0.2883778811,0.0813136697,0.1943197101,0.2561981380,-0.2238534689,0.2267604768,-0.1042720303,-0.1745940447,0.4658774734,0.0146600269,0.3152363598,-0.4425963461,0.3597184718,-0.1753915697,0.1184054688,0.2938487828,0.2363940775,0.0822555646,0.5824915171,0.3510019779,-0.3696215451,-0.0616441369,-0.0677881688,0.3947811127,-0.1936688572,-0.1680987626,0.3000810444,0.1456261277,-0.2096721530,-0.3058469296,0.1905511022,-0.1058342010,0.1145953089,-0.3709673285,0.4036530554,-0.3328208327,-0.4444670677,-0.1223929748,-0.4668149054,0.3548932076,-0.0416167267,-0.3784684539,0.2599406242,-0.3054258227,0.3478914201,-0.3742953837,0.2140372097,-0.3489555120,0.4179718792,0.4402038753,-0.1841968447,0.3620713949,0.3000648916,-0.3953318894,-0.3700809181,0.2096454352,-0.1107543111,0.3445119858,-0.4283906817,0.0769533962,0.0036373872,-0.2666846216,0.2119362801,-0.1782931983,0.3933426142,0.0211408474,-0.2594432533,-0.4033016264,0.3509070873,-0.3331192434,0.2518237233,0.3533844948,0.1787565649,-0.0395950116,0.1183442846,-0.2550902665,-0.0012083816,-0.2176214457,0.0528871901,0.1304817647,0.1010058671,-0.0544960760,0.1925234497,0.1519545913,-0.1829251945,0.1304039508,-0.0959022492,0.1052804738,-0.1194533259,-0.1080187038,0.0928605869,-0.0447781272,0.3222642541,-0.0709206909,0.0536981039,-0.0531575866,0.1170641258,-0.0977782905,0.1441327035,-0.1199010834,-0.1485303938,-0.1101977229,-0.0810056180,0.1768613011,-0.1336811483,0.0671219677,0.5033843517,0.0400270745,0.1486172676,-0.0965646207,-0.1036722362,-0.1717986166,0.1180289388,0.3170036674,-0.0269518103,0.2023745328,0.1161529198,-0.0171837509,-0.1394604146,0.1138131618,-0.1436090469,0.1176099330,-0.1136035919,0.0932687670,-0.0272922739,-0.2358924747,-0.0618354082,-0.0430605784,-0.0455828421,-0.0031608781,-0.2447550446,-0.1936226934,0.0612350814,-0.0654304847,0.0169896148,0.0653466433,0.0217398684,-0.1643059254,-0.2489382476,-0.0370599218,0.2388785183,0.1639027596,-0.0043758755,-0.2200248390,-0.0301651247,-0.0009189441,0.1031152904,-0.0480284095,0.1775595993,0.0477618277,-0.3345394433,-0.0235715508,0.0257302858,0.0613157228,-0.0930921584,0.2294860780,0.1393359005,0.1030390039,0.0396607108,0.0947392657,-0.0224407706,0.0313301422,-0.1652760208,0.3097069263,0.0350281373,0.1260428578,-0.1495852619,-0.2031699121,0.1741765440,-0.2825510502,-0.0098101022,-0.1506225318,-0.0793051645,0.1274700016,-0.0013387438,0.1396495253,-0.1183554977,-0.0504802056,-0.0430933759,-0.1075526625,-0.0669061169,-0.3253468871,0.0742193907,0.0333255306,0.2196273208,-0.0037835988,-0.0053595710,0.0168602653,0.1445785016,0.0144230239,0.2094719410,-0.0186470877,0.2223383337,0.0217409395,0.0692127272,0.1763926893,-0.1814127862,0.1781526953,-0.0546412021,-0.1398468167,0.1644155681,0.0189576279,-0.0138320038,-0.1076244265,0.1592321545,0.0421669930,0.0265131574,-0.0228005033,-0.0310676843,-0.0129583338,-0.3285103142,-0.0170357674,0.0238570422,0.0565856248,-0.1382860392,0.0863787904,0.0077230087,0.0431212187,-0.0044592135,0.0510011725,0.0364120416,0.0009714089,-0.0049934322,0.0325158536,0.0385430194,-0.0239598025,0.0038997286,0.0412666649,-0.0241223015,0.0663802475,-0.0844308510,-0.0230530202,0.0751563683,-0.1088627800,0.0471092314,-0.0458072945,0.0673477724,-0.0394267105,-0.0330430418,-0.0000770865,0.0356230699,0.0815169960,-0.0075202854,0.0224913768,-0.0378245004,-0.1559584737,-0.0486990623,-0.0152928950,0.0943287238,-0.0417800285,-0.0346565247,0.0181574710,0.0641672760,-0.0544795021,0.0778362453,-0.0264892224,0.1100908890,0.0454523936,-0.0279339943,-0.0143009163,0.0137551781,-0.0290972628,-0.0206716545,-0.0177545343,-0.1172511950,0.0308494456,-0.2771398723,0.1126082689,-0.3087978661,-0.3219612241,-0.2676492035,-0.2970754206,0.2839255929,0.1875659674,0.0350034572,0.2977868021,0.3389638960,0.1205824092,0.5136598349,-0.4209486246,-0.1427559406,-0.2849165499,-0.3051332831,0.2498635501,0.6915186644,0.3158039451,0.2775768638,0.1920192689,-0.4748769403,-0.2648461163,-0.3756054640,0.2984000742,0.1100907698,-0.3153438568,0.3984766006,-0.3046684861,-0.3198681772,0.2450691313,-0.4482525885,-0.2396852970,-0.3666112423,0.3430297375,0.4194671512,-0.2997351587,-0.3269254267,-0.0475515984,-0.1664781868,-0.2551171482,0.3120367825,0.3902187645,0.3007472157,0.2869508564,-0.3527304530,0.3421705961,0.4200376272,-0.1646410525,0.1981364340,0.1260987967,0.2428357899,0.4220914245,0.2118320018,-0.2860476375,-0.2503954172,0.1843569577,-0.2987634242,0.2954816818,0.2421210706,0.2868079841,0.0013944388,0.2152635008,-0.1058885679,0.0080077639,0.0831868425,0.0543218404,0.0658080205,-0.0715183914,-0.0946158469,-0.0250779353,-0.0456533283,-0.1025323197,0.0735275671,0.1782592982,-0.1996844560,-0.1426450163,0.0070804735,0.1112817228,0.0316127613,0.0083230017,0.2998756766,-0.0245223623,-0.0995702147,0.0247669294,-0.3030662835,0.0482476242,-0.1483267844,0.1703287065,0.1363600791,0.1964028627,0.0462788679,-0.0927787125,0.0868792161,0.0812808126,0.0188917723,0.0103648752,0.0141786523,0.0242781620,-0.0785385221,0.1607803404,